545 64
the -0.0326305 0.0369096 0.0276231 -0.0335715 0.034206 0.030999 -0.0272596 0.0370349 0.000668503 0.0335044 0.0101963 0.00595934 -0.0422517 0.013211 0.0248269 -0.0375936 -0.0420715 0.0132447 -0.0394344 0.0232823 -0.00026945 -0.0237688 0.0109104 -0.0348027 -0.000290774 -0.0217964 -0.00890657 0.0219444 0.0475148 0.00906993 -0.00875781 0.0377378 -0.0364312 -0.0214408 0.0123693 -0.0412976 0.0285229 0.046531 0.0359181 -0.00131234 0.0464637 -0.0454956 0.0309317 0.00368457 -0.0222392 0.004176 -0.000975501 -0.0391675 0.0181449 0.0440463 0.0156418 -0.0439608 0.0241114 -0.00591622 -0.0279183 -0.0466586 0.0161719 0.0109145 0.0253729 -0.0221034 -0.0351064 -0.0352122 0.00771813 -0.036537
, -0.382768 0.637575 -0.484718 0.758478 -0.108385 0.94114 -0.944881 0.294926 -0.0881537 -0.223317 -0.488695 0.786498 -0.395797 0.015022 -0.832869 -0.846979 0.209384 1.0246 0.675003 -0.081098 0.187987 0.213189 0.119676 -0.390408 -0.143517 -0.557765 0.258513 -0.0751147 0.629359 0.222967 -0.0472498 -0.943212 0.0985921 -0.17773 0.240474 0.274034 -0.420099 -0.227963 -0.282666 1.40554 -0.67562 -0.877625 1.07827 0.699021 -0.069837 -0.00410867 -1.01613 -0.312174 -0.272946 0.133822 0.0296865 -0.81101 -0.0088151 -0.181979 0.220041 -0.00606322 -0.112795 -0.278735 -0.325442 -0.15831 0.106658 -0.020191 -1.08981 -0.0476236
. -0.575336 0.434295 0.502937 -0.0202269 -1.49325 0.599921 0.0432294 0.878401 0.497659 0.00240172 0.0041864 1.67778 0.362124 1.27623 0.280476 -0.0221418 -1.00257 0.024313 -0.106125 -0.512181 0.474727 -0.400828 -0.998369 0.725323 -1.13214 -0.885636 0.413786 -0.193415 0.172499 0.118031 0.40295 -1.79895 -0.515588 -0.389901 0.137166 0.0331009 -0.926695 -1.37377 -1.25728 -0.471985 1.56331 0.998324 0.448648 -0.366396 -0.612816 -0.255189 -0.488548 -0.054471 -0.860721 -0.00851971 0.803753 -0.0985535 0.327408 0.41375 0.304563 -0.716356 0.300617 -0.254105 -0.393938 -0.23471 -0.196893 0.753806 -0.735875 -0.0245789
of -0.373672 1.03224 -0.0482398 -0.287898 -0.00809262 0.0665274 0.185752 0.110237 0.976737 0.0819902 -0.809817 0.491457 0.332799 0.399147 0.59673 -0.468596 1.11493 0.866073 0.361173 -0.00902191 0.178338 -0.651173 0.176213 -0.179115 0.682936 0.308661 -0.280017 -0.982287 0.0820701 0.466546 -0.00482425 -0.911669 0.487417 -0.563709 0.0171177 0.613267 0.75241 -0.0346084 -0.367804 -0.286143 0.577947 -0.335871 -0.264439 0.426106 -0.00842059 0.101758 0.0557727 -0.118066 -0.0083129 -0.576547 0.0578666 -0.860944 -0.910883 0.470152 0.566488 0.0948446 -0.533882 -1.04841 0.57903 -0.332916 0.946949 -0.0377531 0.0106015 -1.79343
to -0.0234326 -0.0296243 -1.36807 0.570838 0.107365 0.541603 0.125092 1.23797 1.51636 -0.331214 -0.355966 0.564959 0.0109408 1.02316 -0.692756 -0.457265 -1.18925 -0.0163889 0.746243 -0.755615 0.0266217 -0.0514801 -1.09286 -0.0908568 -0.740491 0.00451311 0.0377433 -0.684681 0.14784 0.164204 -0.904825 -0.634928 0.345173 -0.300853 -0.196638 -0.441452 0.375417 -0.630354 -0.254932 0.17434 -0.84899 -1.23194 -0.729395 -0.784941 -0.327659 0.32148 0.713896 -0.198752 0.342032 0.126435 -0.00476578 0.212489 0.479463 -0.809748 -0.151913 -0.703306 -0.569559 -0.144622 0.38825 -0.428898 0.247381 -0.0471206 0.21194 -0.753719
in 0.781144 0.165886 0.0625465 -0.704642 0.355097 0.56168 0.120134 -0.13369 0.809409 -0.000403014 0.299341 0.0196765 -0.426412 1.88039 -0.548283 0.181926 0.0329611 -0.221264 -0.214586 1.06347 0.457077 0.733757 0.484814 0.152996 -0.606266 0.609253 -0.578921 -0.155766 1.10999 0.325554 -0.460663 0.0941814 -0.600405 0.212104 0.960605 0.277822 -0.0570978 -0.384011 -0.384243 0.825749 0.0765755 0.160276 -0.290749 -1.5388 -0.448674 0.315553 -0.458493 -0.568921 -1.32207 -0.0538275 0.24783 -1.6199 0.356304 -0.605166 -0.225054 0.195309 -0.25718 -0.52398 0.167034 0.002067 0.97583 -1.35232 -0.562732 -0.00958711
a -0.234565 0.26924 -0.424489 0.220718 -1.092 -0.0396702 -0.941687 0.161389 1.07482 -0.586735 -0.210688 -0.561739 0.491938 -0.191926 -0.939911 -0.885152 -0.310922 0.21367 0.0427366 0.987385 0.270915 -0.856352 -0.153411 -0.299916 0.466382 -0.0241692 0.43553 -0.25933 0.334824 0.413838 0.275772 -0.806931 0.0108133 -0.0213058 0.604062 -0.328541 0.0872868 0.219525 -0.143072 -0.294981 -1.13523 -0.011439 -1.77088 -0.250841 -1.18658 -0.041268 0.264559 0.843822 -0.893331 -0.118112 -0.233924 -0.420643 -0.207581 1.36542 -0.429572 -0.0437513 0.0152214 -0.484106 -0.301186 -0.745067 1.87386 -0.0191541 -0.78809 0.618701
and 1.39103 0.208065 -0.745965 1.03732 0.49373 -0.0105164 -0.944914 0.0584507 0.517826 -1.09227 -0.389699 0.620777 -0.539249 1.02747 0.660333 0.0042887 0.241677 0.678671 0.300744 0.21875 0.131789 1.92933 -0.427259 -0.418608 -0.147182 0.531852 0.480294 -1.11084 0.646476 0.252956 0.655436 0.213664 0.209667 -0.402316 -0.114908 -0.154328 -0.315334 -0.518693 -0.569211 -0.108838 -0.706853 0.393759 -0.979179 -0.842214 -0.852316 -1.10174 0.391269 0.13886 -0.412945 1.13666 -0.011056 -0.130165 -0.0527785 0.347197 1.4351 0.539779 -0.294275 -0.132837 0.254027 -0.693339 -0.15797 0.0329474 0.0236865 -0.546799
for -0.810331 0.0685572 0.0121629 -0.43949 0.359833 2.11174 -0.331559 0.470481 0.824163 0.491484 0.0258899 0.0211318 0.260465 -0.161624 -0.27724 0.00992686 -0.210923 -0.8028 1.12608 0.800627 -0.113763 0.20895 -1.25229 -0.980807 0.426383 1.10501 -0.0882249 -0.132181 0.166562 -0.0757685 0.350589 -0.12404 -0.238873 -0.803175 0.672885 -0.0430985 -0.650448 -0.455428 0.242096 0.840736 0.45877 0.132533 0.161514 -0.971765 -0.806807 0.700723 0.308825 -0.259263 0.103619 -0.15393 -0.846885 0.245174 -1.50332 -0.793077 1.66285 0.322657 -0.225505 -0.833408 -0.0984602 -0.0728435 0.6479 0.0108957 -0.681948 -0.514035
`` -1.11267 0.285101 -0.690631 -1.3836 0.317272 0.536438 -0.299133 0.578628 0.188794 -0.294265 0.255868 0.327127 0.199639 0.0748659 -0.80654 -0.0441045 -0.801039 1.76548 -0.530892 0.107661 0.171016 0.848221 -0.0885294 -0.224489 -1.18122 -0.883539 -1.21355 -0.888718 0.806387 0.022238 -0.00207859 0.408145 -0.0544638 0.327977 -0.218923 -0.533697 -0.334313 -1.13937 0.386512 -0.780184 -0.775671 0.920217 0.231155 -0.574023 -0.169738 0.0700751 0.776542 -0.943326 -1.05278 -1.11534 -0.161159 0.467816 -0.543073 1.44742 0.972421 0.00351312 0.396959 -0.875089 0.426982 0.358726 0.251157 -0.701558 -0.0499134 -0.767279
that 0.0651111 -0.143913 0.531034 -1.77579 -0.718667 -0.31505 -0.0100798 0.772426 0.443412 0.0517768 -0.271863 0.0187214 -0.0125168 -0.289634 -0.638338 -0.260837 0.263694 -0.0431359 0.575026 -0.173328 -0.16073 0.190867 -0.438413 0.560935 0.408976 -0.750704 -0.361175 -0.00851511 0.970112 -1.98008 1.00318 -0.379634 -0.350097 0.379909 0.411284 -1.07693 -0.296863 0.427368 -0.226645 -0.0631752 -0.268565 -1.04109 -0.952009 -1.32419 -0.44959 -0.501351 -0.179437 -1.0516 0.105349 -0.645261 0.017623 -0.537954 0.302389 -0.179758 0.625456 -0.740788 0.00501614 0.073725 0.246732 -0.876138 -0.0058006 -0.402369 -0.535009 -0.00897809
'' -0.817911 0.283861 -1.22676 0.111635 0.343055 -0.57385 -0.246483 0.258153 0.407337 -0.414024 -0.273253 -0.321591 1.24558 0.918274 -0.584686 3.0118 -0.655019 1.37914 1.52204 -0.552207 0.457094 -0.66867 1.24549 -0.440648 0.423913 -0.140856 -0.466328 -0.692577 0.279084 -0.225091 0.996628 -0.760507 -0.109539 -0.479031 0.402497 0.205032 0.127135 0.131756 -0.0770443 -0.0510329 -0.539445 1.1514 -0.424988 0.220485 -0.00724451 0.0260872 -0.3168 -0.496198 -0.000588372 -0.950121 -0.944026 -0.26273 0.386967 -0.0319262 0.240639 -0.796443 -0.935977 0.522015 0.786421 -0.00832356 0.22943 0.894651 -0.540273 -0.00852364
The -1.30165 0.912206 0.414589 0.0290534 -0.351101 -0.102712 -2.43855 0.454492 2.48052 0.596262 -0.0834506 0.186088 -0.0446655 0.759462 -0.0361018 -0.0399539 1.03225 0.256348 0.0596398 1.1352 -0.0321081 -0.0592267 -0.259353 -0.791656 -0.447746 -0.25336 -0.348514 -2.10056 0.330548 -0.323125 0.449508 0.544673 -0.773558 -1.85857 -0.11733 -0.0103128 -0.189665 0.0355076 0.0692855 -0.117178 0.42071 -0.0304873 -0.547789 -0.601877 0.19839 -0.285857 -1.21942 0.37854 0.298603 0.0736073 0.700811 -1.41002 0.302721 -1.09347 0.443424 -1.99742 1.15889 -1.06445 -0.0987446 -1.1767 2.44769 0.713741 0.202123 -0.0495694
is -0.144124 1.03573 -0.462318 -0.562603 0.772133 0.0287206 0.320482 0.0380407 0.427732 0.399601 -0.306873 0.836183 -0.411436 0.184216 -0.851007 0.937324 -0.94435 0.353344 0.380825 -0.23303 1.38694 -0.0415937 -0.117112 -0.226366 -1.26968 -0.459878 0.523654 -1.16294 0.294405 0.00149949 0.456424 -1.58445 -0.00427071 -0.527081 -0.0604785 -0.110504 0.0406951 -0.583918 0.163141 -0.39073 -0.279946 1.02999 1.16488 0.452912 -0.00084502 -1.29982 -1.12175 -0.13389 0.364144 -0.269744 0.0283395 -0.498899 -1.36991 0.792375 0.060809 -0.828411 0.000817898 -0.225288 0.445757 -1.10543 0.184268 -1.32654 -0.785498 0.671971
be 0.604468 0.630006 -0.134041 0.0148739 0.761696 -1.10203 -1.01301 0.225184 0.236678 -1.91973 -0.304762 0.269741 0.141458 -0.0253107 0.432533 -0.143367 -0.733542 0.0751146 -1.01747 0.804598 -0.0412428 -0.0701304 -1.09673 -0.153802 -1.91322 0.454325 -0.0822093 -0.530169 0.50131 -0.36875 -0.426789 -1.81135 -1.0252 0.375198 -0.0387332 0.0919481 1.51467 -1.74365 0.0173813 1.6107 1.06449 -0.225193 1.14345 -0.720183 0.844896 -0.384034 1.17728 -0.931608 0.0784341 -0.416072 -0.29082 -0.606378 -0.459576 1.04164 -0.15525 0.220763 0.288911 -0.463307 1.32817 -0.295846 0.423423 0.639049 0.0701922 -0.485238
said -1.1745 0.577745 -1.01917 -0.549344 -0.125412 -0.239772 -0.500019 0.967332 -0.033485 -0.335536 -0.473752 0.513926 0.159069 0.195691 0.440314 -0.233064 0.586096 0.287995 1.17925 -0.887698 0.791922 0.716669 -0.756007 -2.19955 -0.304824 -0.883878 0.0267752 0.208338 0.283841 -0.547001 0.0827034 0.85664 -0.889214 -0.0878563 1.14119 0.728693 0.43143 0.202877 -0.148524 0.846279 0.0255788 1.2829 -0.429528 0.0957265 -1.96728 -0.0149645 0.350353 0.364103 -0.241776 0.243429 0.121735 0.168626 0.0649792 -0.302545 0.200291 -0.63469 -0.481968 0.0718579 0.92183 -0.563239 0.914354 -0.732044 0.267324 -0.404153
on 0.45864 0.588522 0.634774 0.249788 -0.321461 0.409986 -2.28467 0.861919 0.624746 -0.157011 0.0160368 0.523025 0.553132 0.787387 -0.0720171 0.374726 -0.959579 0.0266486 -0.240295 -1.24973 -0.0146176 0.270226 -0.459255 -1.38691 -0.306306 0.115354 0.0610741 0.0830654 0.00848812 -0.0222469 0.626233 -0.911158 -0.0497201 -1.71014 -0.00855558 -0.0394106 -0.100505 0.122966 -0.705503 -0.666439 1.05119 -0.125286 -0.349078 0.245174 0.763071 0.000700561 0.447978 0.281131 -1.44165 -1.25918 0.737891 0.0155699 -0.0388355 -0.540894 -0.127718 -1.14176 -1.60217 -1.9874 0.103755 -0.429334 0.110482 0.64111 -0.990866 0.805828
by 1.10495 0.789395 -0.0854262 0.910834 -0.643274 1.32429 0.431282 -0.0911407 0.0067785 0.78685 -0.592519 3.91443e-05 1.07016 0.550745 -0.902182 -0.696904 0.374509 -0.238221 0.6687 -0.752482 1.67141 -0.245906 -1.2128 -0.122561 0.345775 0.38401 0.460078 -0.0982137 0.312491 0.537161 0.374124 0.0266333 -0.43651 0.141036 0.0499259 -0.822219 0.0195668 -0.255224 -0.590464 0.441288 0.703196 -0.58628 -0.340142 0.930299 -0.285163 -0.0661251 -0.612114 -0.0128303 0.175184 -0.666379 -0.82691 -0.159324 -0.284608 1.12924 0.037913 -0.145217 0.733853 -0.234507 1.52989 0.17718 0.317436 -0.686498 -0.193553 0.718554
would 0.767593 0.291379 -0.927793 -0.0136345 -0.383034 -0.237631 -0.0738962 -0.325847 -0.0525209 -1.4947 -0.928318 -0.593212 -1.69614 0.393128 -0.861088 -0.241852 0.314811 0.461928 0.716976 -0.0532631 0.475981 0.0301698 -1.26728 0.0854068 0.671005 -0.00616445 0.899483 -0.191656 1.09418 1.22051 0.321082 0.672798 -0.703269 -0.674719 -0.506789 -1.93634 -0.861987 -0.871514 -1.44526 0.836431 1.1933 -0.714385 -0.101992 0.319265 -0.791859 0.0651185 1.73468 -0.4177 -1.27597 -0.83284 -0.277994 -0.189163 -0.424679 -0.079944 0.255271 -1.34222 0.293263 -0.459178 -0.236717 -0.559695 1.03125 -1.43303 -1.71162 -0.129613
was -0.955078 0.698859 0.982216 -0.211244 0.394389 0.815939 -1.59334 -0.233341 -0.00225583 -0.953659 -0.125459 -0.477658 -0.00776124 0.0428761 -1.07802 0.36944 0.0216184 -0.618859 1.13882 0.491583 1.35309 -0.0899245 0.221153 -0.383425 -0.605103 -0.764937 1.12665 -0.308942 0.257141 -0.198224 -0.207152 0.103341 0.00395734 -0.181607 -0.024829 0.462021 1.30073 -0.185802 -0.356254 -0.241327 -0.592324 -0.963262 -0.371647 -1.28774 0.238652 0.111671 0.116047 -0.0932747 -0.710632 0.429522 -1.00178 0.190678 -1.802 -0.273795 1.26733 1.05275 -0.39983 0.0779777 2.5379 -0.00467453 -0.352973 -0.468928 0.0747731 -1.1401
he -0.517254 1.57017 -1.28523 -0.39809 0.502174 0.146267 -0.73708 0.5435 0.611009 0.2756 0.0601236 0.837731 0.345238 0.850605 -0.636816 0.924603 -1.29765 0.848133 0.00568005 0.116657 0.22718 0.194178 -0.0801397 0.421242 -0.661644 -0.00904091 0.362257 -0.0165114 -0.0605561 -0.202987 -0.0963874 0.539969 -0.458318 -0.0745791 0.127646 -0.0673542 0.0922799 -0.555942 0.512769 -0.0587055 0.000877368 0.555373 1.71173 0.191714 -0.0875062 0.00506683 1.39129 0.289949 -1.94923 1.65991 0.296905 -0.131197 0.140961 0.0962859 0.122393 -0.557423 -0.13787 -0.318118 0.00815267 -1.08724 -0.416086 -0.531596 -0.66581 0.00270717
as -0.914407 0.286345 0.166458 -0.1718 -1.09831 -0.785467 0.212311 -0.373311 0.514233 -0.666155 -0.0458796 0.308538 0.0615706 1.33456 -0.67005 1.19334 -0.0100121 0.0429022 -0.460157 0.610501 1.20285 0.339042 -0.0012481 -0.668439 -0.279233 0.090937 0.929399 -0.0953405 0.176574 -0.945376 0.308596 -0.0941794 -0.344601 0.0829964 -0.352878 0.00791884 0.413409 0.0933262 -1.80648 0.538745 0.44487 -0.389621 -0.594345 0.398717 0.0897653 -0.0629473 -0.0200972 0.381316 0.273156 0.165317 0.0192132 -1.50439 0.216302 -0.168891 1.64594 -0.243727 0.560135 -0.601562 1.69107 -1.79684 0.841992 -0.0697485 0.0602752 1.43408
will -1.1736 -0.208429 -0.652221 0.543605 0.601544 -0.438709 0.308866 0.0190045 -0.29407 -0.579385 -0.352081 -0.225593 0.339608 0.22663 -0.306424 0.468989 -0.395521 0.363277 -0.440965 -0.852218 0.366156 0.818362 -1.16995 -0.367531 -0.421306 1.49604 0.849102 -0.200025 0.143901 0.855035 -0.018798 -0.233272 -0.779992 -0.138621 0.526714 -0.417867 1.57521 0.614705 -1.34878 -0.333234 1.24189 -0.792473 0.346591 0.10467 -0.0938628 -1.0169 0.113825 0.27652 -0.529755 -0.0866923 0.24878 -1.90825 -0.606 -0.263281 0.241155 -0.385359 -1.04747 0.249571 -0.244252 -0.184366 0.78662 -0.341919 -1.03892 -1.47119
has 1.21443 0.0320525 -1.07453 -1.29646 0.326301 0.268146 -0.43454 0.295943 -0.192156 0.581723 0.250262 0.635356 -0.81523 0.027428 -0.537049 2.06425 -0.171181 0.443682 0.700516 -0.475796 0.346261 0.15653 -0.121377 -0.235929 0.14087 -0.825694 0.453904 -1.21021 0.470032 -1.69008 0.241333 -0.36051 0.247182 -0.256815 0.687373 0.73231 1.23699 -0.0436017 -1.14326 0.575591 0.159724 -0.633356 0.599867 0.112291 -0.343745 -0.53957 -0.76235 0.33416 0.000319059 1.09099 -0.392571 -0.208231 0.678781 0.669996 -0.390968 -0.283248 0.4187 -0.821953 0.563239 0.418288 0.440797 -0.200435 -0.481759 -0.393985
with -0.032786 0.0218125 -0.0939748 0.344224 0.349535 0.395036 -0.349183 0.896768 -0.287309 0.376276 -1.50972 -0.00382736 0.390821 -0.525704 -1.19158 1.61269 0.38625 -1.03524 -0.191077 1.92658 0.331623 -0.131749 -1.53731 0.536054 -0.356471 1.16859 0.864511 0.571355 0.812346 -0.738267 0.57907 -0.229354 0.807117 -1.13307 -0.0505185 -0.559918 -0.0256823 -0.152632 -0.892691 0.451006 0.983214 0.0971543 -0.75114 0.480121 0.182698 0.224184 -0.394014 -0.431643 -0.410958 -0.0710394 -0.273166 0.457688 0.295035 1.50822 -0.551743 -1.05001 0.0777796 -1.27207 -0.0640049 -0.432603 0.057982 0.0736842 0.430678 -0.537373
it -0.395936 0.251461 -1.34756 -0.346399 -1.89479 -0.215703 0.43472 0.998834 -0.139144 0.14157 -1.11908 0.075194 0.251855 0.206065 -0.236661 0.449698 -0.781786 0.450714 0.0530061 0.443448 0.498092 -0.87984 -0.955232 -0.818612 0.848012 -1.55687 -0.289481 -0.118565 0.740497 3.02185 -0.00381363 -0.0855373 -0.137954 0.395189 -0.00243829 0.0792325 0.48054 -0.583851 -0.156953 -0.530662 0.163696 0.0974707 0.677442 0.105291 -0.228767 -0.309688 -1.45397 -0.790502 -0.14988 -0.00794211 0.360211 -0.836613 0.274027 -0.285204 0.400181 -0.26331 -0.531404 -0.771257 -0.442576 -0.484145 0.729287 -0.842747 -0.833879 -0.705327
not -0.0788902 0.85461 0.497861 -0.910588 -0.0321718 -0.265163 -0.707282 0.304792 0.0472628 -0.429887 -0.13324 0.44769 -1.19492 0.36113 -1.02798 -0.012388 -0.278579 0.0475105 0.452545 -0.459666 0.110819 -0.655721 -0.722068 -0.100833 0.451075 -0.00919014 0.0788091 -0.49095 -0.173927 1.64623 0.588383 0.108949 -0.554096 0.276912 1.21108 -2.12083 -0.111847 -0.345127 0.306458 -0.119526 -0.0861524 0.0165645 0.382145 0.0776236 -0.998449 -0.495376 0.875539 -0.779485 -0.0433556 0.447514 -0.981688 -0.746642 0.513935 1.45913 -0.00632674 0.0724775 -0.390613 -0.234422 0.0639744 -0.604619 -0.645482 0.0440904 -0.358619 0.825593
his 0.300706 0.495727 -1.02974 1.73526 -0.339281 -0.068671 0.214231 0.647691 0.237424 0.803052 -1.28773 -0.300147 -0.135671 0.384679 -1.29258 -0.329742 0.13844 0.347546 -0.154001 0.0709639 -0.130854 1.06182 0.510138 -0.24105 -0.179974 -0.19692 -0.542316 0.170147 0.982121 -1.29681 1.86582 -0.000547981 -0.309811 -0.858157 0.232137 0.0426095 0.199504 0.277301 -0.179121 1.15977 0.306634 -0.295489 -0.183032 0.0897415 -0.640293 -1.28613 0.132308 0.0586048 -0.29494 2.19801 -0.960863 -0.682479 1.30231 0.849705 0.219373 -0.568793 -0.146807 -0.250573 0.186499 -0.100684 0.211082 0.627983 -0.0642344 0.03677
an 1.00519 0.0150421 -0.150212 0.975067 -1.17515 -0.402946 -0.424248 0.376499 -0.00196466 -0.00446942 0.122966 -0.00147561 0.613647 0.203795 -0.982758 1.2538 -0.218896 -0.161971 0.676296 1.24938 0.146964 -0.866371 -0.436042 0.343603 0.0742398 0.0102503 -0.885818 0.054955 -0.445444 0.574196 -0.182349 -0.63974 -0.114358 0.0246427 1.46226 -0.467251 -0.110885 -0.673275 -0.941397 0.50103 0.401847 0.0186794 0.551393 -0.722508 -0.893446 0.152311 0.194009 0.199362 -0.383072 -0.738029 0.318173 -0.806065 -0.127226 2.09847 -0.162246 0.137308 -0.944579 -2.51212 -0.0497626 0.0492647 -0.00254454 0.257749 0.440763 -0.873706
at -1.54567 0.394152 -0.419924 1.04221 0.241101 -0.839393 -0.0425439 0.232273 -0.573085 0.193157 -0.59498 0.914891 0.302953 0.469656 -0.251214 0.282277 0.744305 0.452556 0.239062 1.28647 0.0811603 0.691372 0.665383 -1.49671 -1.99579 0.506408 -0.0373603 0.572068 -0.0468938 -0.0916164 -0.230126 0.0163453 0.161438 0.00691207 0.278917 -1.21453 1.40817 0.0929248 -0.820132 -0.478672 0.00659334 -0.836554 0.094056 -1.08228 -0.604738 -0.387096 -0.592148 -0.20343 -1.10312 0.469523 -0.573821 0.0344896 0.0572528 1.96998 -0.315476 1.15999 -1.09894 -0.199079 1.06148 0.0537055 0.423145 -0.597592 -0.124105 0.00351358
who 0.701493 -0.400064 -1.20234 0.19464 -0.854164 -0.00348265 0.165172 0.131082 0.356758 0.925014 -1.32927 0.455624 -0.412206 0.643309 -0.0731955 -0.000615484 1.57242 0.248574 -0.0217253 -0.789195 1.66569 0.095816 -0.982556 0.395345 0.109484 -0.322638 -0.247246 -0.498339 0.325807 0.484251 0.0101993 -0.171706 -0.201386 -0.055827 -0.583984 -0.863589 -0.317745 -0.77224 -0.107667 -0.0811334 -0.442439 -0.931014 -1.84128 0.156961 0.00447999 0.33646 -0.637897 0.197809 -0.443713 0.25657 -0.832606 0.456195 -2.45736 -0.160864 -0.0614443 -0.278551 -0.074035 -1.11475 -0.314275 0.608574 1.00022 -1.53659 -1.45364 -0.375148
He -0.0562031 -0.343079 0.723512 -1.09407 -0.186909 -0.656309 -1.33516 0.816655 0.356095 0.895961 -2.108 0.249881 -1.41145 0.952506 0.217827 0.00896696 -2.36935 0.189911 0.279828 0.198149 1.96908 -0.198637 -1.77942 -0.52529 -0.0869457 -0.144649 -0.366139 -0.0616393 -0.221392 0.751699 1.45727 -0.935241 -0.398838 0.572425 0.291416 -0.327781 -0.995746 0.175986 0.401871 -0.356577 -0.268502 0.99303 0.944976 0.622529 -0.993332 -0.02651 0.215728 -0.553157 -0.642813 0.822176 0.146499 0.032496 -0.278006 2.41088 0.257554 -0.905684 0.181769 -0.0338364 0.586751 -0.750784 0.799726 0.0183347 -0.500634 0.502359
are 0.531831 -0.0608019 0.417168 0.0449177 0.886577 0.664982 -0.0899391 1.97585 -0.0598263 0.910541 -1.83584 0.406957 1.13126 0.284256 0.0902592 0.0788536 0.318474 -0.647084 0.835416 0.715428 -0.959227 -0.778078 -0.258242 -1.17118 -0.0335169 0.857158 0.00826225 -0.116964 0.384671 -0.755255 0.569389 -0.482214 -0.0304578 -1.82453 0.0348554 -0.463396 0.297971 -0.7876 0.287195 0.428263 0.56534 -0.570697 -0.368185 -2.08329 -2.77137 -0.681699 -0.102238 0.807186 0.00813488 -0.323692 0.174133 0.516905 -0.280813 -0.155372 0.662293 -0.242522 -2.83024 -0.392579 0.100442 -0.0526762 -0.0927197 -1.20485 -0.225822 0.0427479
from -0.21416 0.260785 -0.231007 -0.0845348 0.186315 -0.0695257 0.0102561 0.285343 -0.0771597 0.585286 0.158565 0.264443 1.01136 0.242873 -0.561783 0.281101 0.38096 0.879916 -0.452496 -0.763534 -0.508844 -0.776452 -0.676522 -0.332347 -1.71557 -1.75608 0.227184 0.187588 -0.930245 -0.746768 0.314194 -1.71253 0.0174769 0.400024 0.824702 0.94541 0.718472 -0.313397 -0.604917 0.174915 0.664836 -0.125594 -1.65137 0.489836 -0.415125 -0.304473 -1.02388 -0.594761 -1.5932 0.667166 -2.5052 -2.73484 0.305283 0.507153 0.00463848 -0.777191 -0.186013 -0.0109407 -0.0346847 0.291671 2.24518 -0.0121513 -0.21685 -0.639186
state -0.302142 -0.0273658 0.912276 0.616265 -0.262706 0.192537 -0.231159 0.610229 0.240195 -1.10286 -0.352257 0.354332 0.738014 0.554105 0.104067 0.628276 -1.58819 0.0587705 1.83482 0.793332 0.5642 0.922614 0.141932 -1.26163 -0.422532 0.0322718 -0.0582922 0.263539 0.0347685 0.799018 0.416775 0.582678 -0.514637 -0.277931 0.619702 0.371812 -0.0918591 -0.624898 -0.222089 0.0187889 0.102002 0.711588 -1.55158 -0.376356 0.208568 0.404963 -0.304887 -0.880791 0.000867726 0.0817954 -0.216727 -2.32972 -0.00925481 0.283954 0.400214 -1.17774 -0.235213 0.103763 -0.0415889 -0.0726581 0.262956 -0.357763 -0.0197309 -1.54009
Mr. -1.33305 -0.0965048 -0.0574908 -2.45537 0.78433 -0.213076 -0.477173 0.419027 -0.0586217 0.050104 -0.318419 -0.373075 -0.185418 0.790523 -0.0055978 0.406485 1.36967 0.613281 0.42285 -0.877172 0.139692 0.219677 -0.640042 -0.671689 -0.727651 -0.656675 -0.710245 0.0564177 0.174062 -1.21423 -0.751637 -0.313485 0.0544628 -0.61532 0.898139 -0.46361 0.824949 -0.488148 -0.461842 0.499273 1.59218 -0.085929 0.227849 0.00367723 -0.249364 -0.407263 0.540354 0.585943 -0.174464 0.712015 -1.31079 0.474841 0.24227 -0.0101236 0.552083 -0.505238 0.188442 -0.177077 1.18794 -0.119732 0.22575 -0.0916778 -0.0229804 0.166222
been 0.186083 -0.0319321 0.424831 -2.43549 0.481803 0.894424 0.303222 -0.112881 0.879398 0.260815 -0.0515007 1.15215 0.0206502 -0.489583 -0.0554 0.808728 1.18085 1.65806 0.476421 0.969581 1.34523 0.219164 -0.638161 -0.299545 0.314194 -0.232285 0.163301 -1.04231 0.24888 -0.00240069 0.0531983 -0.971421 0.6934 -1.47905 1.70787 0.344972 0.180598 0.0833125 -0.868569 0.325001 0.50593 -1.63487 -0.441115 0.142619 -0.455754 -0.140776 0.114868 -1.91678 -0.547418 -0.141293 0.256588 -0.65719 0.519875 0.745728 -0.316473 -1.25524 -0.0315773 0.146984 -0.4655 -0.25716 -0.060711 -1.35579 -0.022638 0.249069
this 0.470676 1.47038 0.245824 0.324535 -0.132124 0.00338642 -1.37863 0.387187 0.596037 1.31817 -0.320053 -0.309093 0.279304 1.4362 0.0285117 1.34351 0.584337 0.414961 0.208922 0.391975 -0.0481071 0.0603462 0.485548 -1.27706 -3.51456 0.0790192 0.00577295 -0.888378 -0.408057 0.752213 1.95031 -0.0116639 0.643943 -0.00495321 0.307926 1.29306 0.671258 0.0407213 0.50506 -0.461155 0.357511 0.121792 0.375602 -0.0118866 -1.04869 -0.425926 0.598776 -0.742153 -1.84436 -1.54615 0.00932429 0.0158932 -0.0357827 1.04775 -1.45818 -0.00413834 -0.974062 0.432972 2.05772 -0.0161859 0.257451 1.28991 -0.852502 -0.752761
which -0.17149 0.0289231 -0.213249 0.272297 -0.230397 0.0927325 0.5194 0.981328 1.41862 -0.174885 -0.0967688 1.83343 0.918924 -0.211417 0.797497 0.575598 0.000559652 0.188104 -0.255239 1.57561 -0.483764 -0.539684 -0.745794 0.344119 0.6115 -0.14197 0.343301 -0.349353 -0.176611 -0.215247 0.649614 0.474311 0.687908 -0.70955 1.14231 0.432487 -0.316061 -1.6787 -0.399913 -1.13448 0.205589 -0.331393 -0.0723729 -0.162608 -0.18611 -0.483576 -1.00319 -0.491293 0.410665 0.58213 -2.13272 0.0287501 -1.14869 1.38955 0.551849 -0.618966 -0.0727472 -0.623231 -0.356601 -0.558608 1.33405 -0.318268 0.124636 0.0888408
-- 0.648283 0.99998 0.419985 -0.0335337 -0.668914 2.03316 -0.513795 -0.190682 0.106058 0.998759 -0.137101 0.867103 -0.695018 -0.0283432 0.556709 0.399247 0.302029 0.160582 1.37229 -0.516562 0.202113 -0.171849 0.369199 -0.20454 -0.308426 0.139124 0.382978 -0.203794 0.291437 0.906017 0.796718 -0.00217614 -0.407786 0.426026 1.22092 0.2481 -0.282679 -0.683209 -1.02105 0.00819788 0.487931 1.0773 -0.445141 -0.123587 -0.421334 -1.29317 1.11845 -0.719147 0.150484 1.27736 -0.602375 -1.05566 -1.26058 -1.63788 1.14259 -0.917801 0.267525 -0.355292 0.0499554 -0.416476 0.264187 0.286377 -0.744879 -0.806851
administration 1.98966 0.710014 -0.0300107 0.362262 -0.816625 0.243618 0.104819 0.164468 1.0229 0.569609 0.267885 1.85637 -1.22859 0.00517944 -1.43548 0.941344 1.49588 0.942407 -1.68349 0.507704 -0.0871909 -0.585337 -0.508442 -0.421969 -1.14106 0.0164514 1.35089 0.0908826 -0.060339 0.84219 0.567908 -0.0844186 -0.0388354 1.02852 0.363703 -0.794444 -0.214907 -0.630566 0.85706 1.21901 2.79567 -0.986872 -0.276808 -0.00399186 -0.28911 -1.09546 -0.309091 -1.63161 -0.653309 -0.140955 -0.936588 -0.387711 -0.089407 0.745507 -0.114798 0.41122 -0.750594 -0.816622 0.936064 0.676522 0.088785 0.110083 0.758567 0.224223
have 1.75055 0.810375 -1.31098 -0.811126 -0.830883 -0.0515098 -0.0298335 -0.26351 0.12135 -0.0211668 -0.231966 -0.0117176 0.000398686 -0.34633 -0.363249 0.288406 -0.222557 1.62822 -0.556013 0.0859058 0.29595 0.170955 -0.359417 0.602927 -0.113686 0.500032 1.17987 -1.27702 1.2245 -1.32664 -0.0353781 0.482521 -0.0273861 -1.17112 0.778701 0.851821 0.0318586 0.61699 -0.253777 -0.0218256 0.721044 -0.335545 -0.304143 -0.148483 -1.10259 -1.60792 -0.905955 -0.122382 0.0193532 -0.547147 -1.41934 -0.151923 0.117679 0.812843 0.0260533 -0.583422 -1.02809 0.003518 -0.109369 -0.454521 -0.363923 0.871455 -0.0690421 -0.242591
or -0.00910512 -0.297444 -0.493136 -0.743538 -0.556509 0.455823 0.52622 0.765562 -0.0101781 0.725416 -1.12593 0.610129 0.526135 0.332047 -1.55273 0.484688 -1.43624 -0.153791 0.108479 -0.72845 0.608897 -2.27761 -0.823989 -0.547423 0.652543 -0.0956273 0.725049 -1.05888 0.541299 0.526591 -0.239199 0.077287 0.493903 -1.41925 0.794279 -0.0608383 1.42737 0.0268074 -0.175834 -0.00328157 -0.90219 -0.54507 -0.440123 0.100836 -0.243774 -0.273692 0.0158791 -0.430665 -0.418258 1.34669 -0.0739785 -0.182709 -0.300514 -0.649396 -0.35127 0.574055 -0.617749 -2.04564 1.33853 0.285614 0.130549 -1.32109 -0.805357 -0.820282
more 1.04432 -1.68511 -0.0278414 -0.368276 -0.319614 -0.00831481 -0.0801809 0.156482 1.93291 0.157498 -0.710066 0.27221 0.922556 0.0543002 -0.0104691 0.400223 -0.00461593 0.353022 0.0163924 0.00324338 0.0114073 -0.570281 -0.919143 -1.04798 -0.0518024 0.232239 0.398121 -1.31491 0.206602 -0.262174 1.47375 0.00792739 -0.97546 -1.81312 0.590496 -0.204605 0.700276 -0.0384078 0.763244 1.23733 -0.180779 -1.21176 0.819802 -0.228301 -0.247271 -0.888728 1.39003 -1.57254 -0.0111987 0.848826 -0.152537 0.0135757 -0.617898 0.442672 1.07287 -0.235887 -0.222528 0.127474 0.059246 0.110438 0.212552 -0.411492 -0.0245085 0.186408
year 0.116891 -0.540328 -0.0170394 1.09169 -0.11476 -0.151321 -1.23173 0.567915 0.146316 0.66999 -0.462223 -0.0965491 -1.15315 0.280292 0.504976 1.33301 0.525961 0.382659 1.60087 0.701322 0.671889 -0.146198 0.132214 0.70687 -0.0214795 0.799627 1.38664 -0.538969 0.415261 -0.0687966 0.833094 0.441018 -0.543215 -0.154041 -0.0938701 -0.625677 0.826387 0.92459 0.135253 -0.167953 -1.32123 0.224713 -0.325955 0.35996 -0.825667 -0.0253671 1.08606 -1.28909 -1.03123 -1.3643 -2.74811 -0.165649 0.40634 -0.175435 1.06549 0.0500358 0.448643 -0.509762 0.378643 -1.66576 0.441343 -1.42542 0.452526 0.498126
bill 1.3963 0.663935 0.272616 -0.128557 -1.0447 1.20738 -0.738266 0.0355751 0.169351 -0.610815 0.103168 -0.0222756 0.339617 0.0831967 -0.0582972 -0.47725 -0.307819 0.86226 -1.10163 0.343727 -0.471778 -1.43227 0.00811549 0.284855 0.507607 -0.124225 -0.627995 -0.227539 1.10504 0.605438 1.6272 -0.208344 -1.06343 0.0129112 -0.53771 -0.00112775 0.162575 0.255307 -0.0569757 -0.537835 1.53087 -1.19322 -0.236724 -0.0255652 -0.213397 -0.388574 -0.510909 -0.817808 -0.655753 0.315842 -0.966054 -0.0136962 0.146423 -0.334601 1.74569 0.15465 -0.282492 -0.196939 1.796 -0.631135 -0.446791 0.38114 -0.0998415 -1.30383
had -2.15312 0.747387 0.0526348 -0.734647 0.774006 0.173706 -0.3696 0.310388 -0.427886 -0.666299 0.082888 0.499357 0.771271 -0.425658 -0.0831958 1.05381 1.12368 2.07635 0.229979 1.9347 0.0192516 0.632831 -0.472235 0.327815 -0.388464 -0.0121677 0.721661 -0.353368 1.15978 0.175048 0.849483 -0.577732 0.00248593 0.459449 2.05909 0.320027 1.10968 -1.31959 0.399932 -0.0157174 -0.575822 -0.220474 -1.08733 0.144191 0.231488 -0.572927 -1.16025 -0.630704 -0.708975 0.419436 0.418332 -0.0673252 0.159932 -0.0574638 0.131914 0.303798 -1.40697 -0.859844 0.235975 0.830266 0.380316 0.162936 0.142065 0.25372
one -1.0248 0.0611808 -0.164709 0.0148007 -0.0979424 -0.467916 -1.24995 -0.230326 0.321976 0.714043 0.0542368 0.981475 -0.262118 -0.0826759 -2.30646 1.3395 0.416011 1.58339 0.144078 0.735198 -0.024757 -0.659824 -1.35726 -0.462938 -0.415992 -0.554862 1.65245 -1.49099 -0.0217627 -1.19967 1.21079 -0.389856 -0.107352 -0.593588 0.951533 0.281031 1.26538 0.453406 -0.935068 0.75176 -0.551027 -0.0897489 -0.522094 0.840288 -0.536498 -0.0163198 0.8696 -0.157906 -0.338419 -0.543111 -0.242737 0.388566 0.195458 -0.273659 0.387135 -1.66464 0.0769644 0.158558 -0.208367 -0.372738 0.0970104 0.0706558 0.251904 -0.261693
President -0.113904 0.488869 0.173019 0.844748 -0.913605 1.13713 -0.114822 0.530448 0.734914 0.646887 -0.762509 1.70356 -1.20663 -0.158963 -0.929344 0.42404 -0.477386 0.959499 -0.145874 -0.223841 0.660193 0.941376 -0.11452 -0.0303753 -0.824824 1.213 -1.2692 0.567105 -0.174466 0.607239 1.0932 0.0271705 -1.56278 0.0531163 1.01335 0.709927 -0.150354 -0.419686 0.658178 0.798957 -0.714195 -0.100438 -0.80677 -1.26317 -0.104011 -0.768654 1.9987 -0.783509 -0.575462 -0.966382 0.406876 0.614185 0.616223 -0.943514 1.65798 0.203902 -0.323376 0.55515 0.0242381 -0.0585108 1.48436 0.194663 -0.909362 0.852398
its -1.18145 0.571721 -0.879719 0.390184 -1.24731 0.486904 0.348938 -0.0151276 0.275142 0.945376 0.585609 0.250371 -2.03668 0.184079 0.229878 -0.911068 -0.817993 0.765124 -0.313125 0.84947 -0.493793 0.348174 0.436259 0.80037 -0.743569 -0.474875 0.0862116 -0.764041 0.178978 -0.522426 0.202742 -1.28568 0.279368 -0.554261 1.1362 -1.32575 0.00737445 -0.13216 -0.389787 0.00749886 1.01184 -0.0841156 -0.0157023 -0.564264 -0.0971226 -0.344901 0.887533 -2.14421 -1.35408 -0.464534 0.131445 0.121877 0.893701 -0.57725 0.729673 -0.132767 -0.606034 -1.09405 0.964371 0.185784 0.0727658 -0.0232755 -0.0807873 0.394579
election 1.02753 0.228895 0.204922 -2.4571 -0.462493 1.49169 -2.59191 1.36167 0.129282 0.294449 -1.05858 -0.00858818 1.4683 0.711963 -0.176788 0.255607 -0.474536 0.000918375 -0.0278284 0.00855256 -0.00841525 0.747963 0.254084 0.516615 -0.168115 -0.221923 -0.0916966 0.00140544 0.34927 -1.08907 0.219117 0.457783 0.443994 -0.552605 0.0692127 -0.118294 -0.288268 -0.326517 -0.656426 0.0279601 -0.530868 0.768767 -0.5759 -0.789004 -0.0443703 -1.43952 -0.28653 0.0782879 -0.0852112 -0.327144 0.353043 -0.415891 -1.10701 -0.335814 0.444467 -0.1324 0.147858 0.0251895 -0.201427 -0.38752 1.16332 0.30319 -0.432943 -1.37647
last 0.856676 0.31264 0.165423 -0.633958 -1.61152 0.443202 -1.06536 0.270684 0.603594 0.809903 -0.302112 0.0116585 -0.805263 0.0676348 0.120542 0.909713 0.223272 -0.198499 1.00517 -0.0376307 1.08206 0.670474 -1.14649 -0.301718 -0.919336 0.993944 -1.43398 0.00119611 0.239651 0.891374 0.195083 0.020645 0.135826 -0.49612 -0.022929 0.472737 1.4249 -0.762205 -0.840871 1.25134 -0.319344 -0.452049 0.146503 -1.90016 -0.271332 0.675298 1.36833 0.481366 -0.532609 0.45314 -0.720406 0.156712 -1.46891 -0.460433 0.481492 -1.09838 -0.0634096 -0.766136 0.42135 0.0179173 0.690142 -0.534126 -0.218182 0.728523
tax 1.41013 0.255931 -0.855218 -1.60876 -0.796367 -0.95813 -2.2962 0.10564 0.460395 -0.971735 0.371766 0.109995 0.647378 0.689165 0.537631 0.265623 -1.07439 0.562615 0.192308 0.406037 -0.310066 -1.01508 -0.838667 0.535573 -0.421069 0.506259 -0.445307 -0.0515914 -0.256218 2.82134 0.38831 -0.0999895 -0.543707 -1.15571 -0.104534 -0.639217 0.644076 -0.426545 -0.0599185 0.0752995 0.27554 -1.89307 -0.518165 0.305463 -0.40675 -0.355661 0.767134 -0.683651 -0.560936 0.703556 -0.897397 -1.99824 1.23463 -0.879288 0.542914 -0.238903 -1.46692 -0.057916 -0.45408 -1.43673 0.432954 -0.389933 0.31266 0.464788
Democratic -0.0150243 -0.358042 -0.359524 -1.37423 -1.05052 0.569508 -0.250149 0.074658 0.249203 -0.578748 -0.774698 0.148999 -1.45514 -0.11247 -1.97187 1.85793 0.708512 0.195254 1.49757 -0.399476 -0.383014 0.981189 0.351352 -1.14888 -0.382527 0.213356 0.822013 0.0139696 0.784374 -0.212984 -0.34213 -0.578068 -0.690576 0.00507888 0.317486 0.132276 -0.201645 0.0123851 0.56941 -0.0183306 -0.328434 0.968614 -1.74794 0.583084 0.221123 0.00436027 0.0501279 -0.494099 -1.35848 0.355361 0.0625551 0.279297 -1.92351 0.308106 -0.259798 -0.00303474 0.0189478 -1.23342 0.430187 -0.494018 0.0232562 0.136642 0.638151 -0.114698
It -0.805086 0.382096 -1.17131 -0.517737 -0.252334 -0.109706 -0.101249 0.203162 0.46434 -0.156574 -1.41457 0.234826 0.421094 -0.138038 0.0314817 -0.191887 -0.129571 0.286474 0.931353 0.995996 -0.247791 -0.590528 0.248972 -1.95849 -0.251387 0.0373383 -0.0653906 -0.770513 0.393226 0.202904 0.611736 -0.59687 -0.225103 0.102439 0.426109 -0.246843 0.178842 0.213388 0.0495018 -0.428877 0.0290557 1.19953 0.44995 -1.09181 -0.284843 0.258983 0.920044 0.336374 -0.426535 -1.2199 -0.437112 0.0139635 0.622144 0.838764 0.520364 -0.946033 0.115002 0.0466459 0.182358 -0.0248739 0.36303 -1.50432 -0.660552 -0.527193
House -0.856501 0.331089 -0.27515 1.66148 -0.931264 -0.275169 0.60437 0.206739 0.687804 1.04537 -1.00643 1.08319 -0.344388 -0.0497112 -0.153414 -0.87693 -0.381654 -0.0179483 -0.0612132 -0.667215 0.22273 -0.355524 -0.659408 -1.72272 -0.511881 -1.03648 -1.26567 0.67493 -0.0926247 1.5352 1.18201 -0.624293 0.409167 -0.2452 -0.0109358 -0.171644 -0.826591 -0.034238 -0.0123877 -0.661292 0.363992 0.678377 -0.418353 -0.826765 -0.295726 -0.0791323 0.0223062 1.7019 -0.557682 -0.330709 -0.895979 -0.0179717 0.175766 0.17071 1.00917 -0.636313 -2.47485 -0.00244438 0.780038 -1.40768 0.756733 0.0110195 -0.447276 -0.371616
out 0.394006 1.27887 -0.477073 -0.746937 0.569019 0.0722674 -0.399487 1.43516 -0.00305958 2.56165 -0.66853 -0.214092 0.672489 0.299379 -0.576091 -0.263542 0.598306 0.544057 0.69011 0.363703 -0.248476 -1.04039 0.236725 -0.390387 -0.32256 -0.734449 0.912823 -0.422264 1.20726 -0.577384 0.491622 -1.01581 0.30495 -0.663371 -0.0956474 -1.8293 -0.145175 -0.625721 -1.22019 -0.489933 -0.944489 0.472405 0.810936 0.110873 0.703159 -0.503829 2.10445 -0.808564 -0.304377 -0.479324 -0.35154 -0.900431 -0.68808 0.65074 -0.339269 0.356162 0.138207 -0.112024 -0.035579 -0.85961 -0.269172 -0.770127 0.074137 -1.08208
other -1.31356 -0.473138 -0.348795 1.21795 0.364644 3.14674 -0.854704 0.148602 0.119736 0.0577354 0.094596 0.752968 -0.528662 0.257832 1.10132 0.00509871 -0.57376 0.16475 -0.30065 1.85105 -0.0547577 -1.03341 -0.842928 0.687029 0.161162 -0.855755 -0.239227 0.412326 0.834316 0.217895 1.90726 0.0106563 -0.0291762 0.127728 -0.442411 -0.138646 -0.242733 0.227378 0.00143399 -0.126353 1.02453 -0.233708 -0.319278 -0.117526 -0.25504 0.0433263 0.489106 0.626622 -0.519821 -0.00813534 -1.19489 -1.27049 0.972887 -0.0258607 0.41914 -1.75591 -0.388753 -0.626199 0.193686 0.365007 1.05969 0.112965 -1.05061 0.616451
no 1.49028 0.556402 -0.215669 -0.491743 0.456493 -0.109025 -0.764694 -0.610381 0.438713 -0.426756 0.0833075 -0.14776 -0.187871 0.25724 0.765172 1.4573 -3.04055 1.50713 0.260972 0.0270718 0.906246 0.132852 -0.400024 -0.0957278 0.127808 -1.18711 -0.836782 -0.376078 -0.707399 -1.00291 0.725107 -1.06907 -0.0223611 -0.280735 0.99254 0.849335 -0.364864 0.281421 -0.421166 -0.200552 0.168155 -0.556609 0.271448 -1.31952 -0.303744 -0.51126 -2.18977 -0.18444 0.294427 -1.01123 -1.14809 -1.21271 -0.148657 -0.31544 1.59903 0.186019 -0.489877 -0.166949 0.0169845 -0.133272 0.33739 0.231753 -0.149179 -1.89138
than 0.685345 -0.760175 -0.344294 0.0467646 -0.246805 1.01296 0.0220599 0.74899 0.120346 0.300611 0.000937606 0.15059 1.71786 0.958297 0.630088 -0.513971 -0.350442 0.971829 0.951145 1.2533 0.419748 -0.277934 -0.160006 0.0101653 0.585888 -1.304 0.812799 -0.160367 0.964693 -0.0628276 -0.0465946 -0.927046 -0.598572 -0.808637 0.959669 -1.90385 1.48627 -1.67012 0.559665 1.16878 0.048695 -2.17401 0.829711 0.477587 0.0819911 -1.63765 0.138503 -0.836913 0.537307 0.663952 -1.58674 0.394383 -0.159653 -0.22816 0.210535 0.192785 -0.614714 0.203056 0.435779 -0.717315 -0.352443 0.356636 -0.108961 -0.0488961
there -0.670008 0.626285 -0.622434 -0.48041 -1.04878 -0.653991 -0.896079 0.536111 0.856518 -0.680773 -0.847066 -0.320209 0.0122364 0.754405 0.204544 -0.135644 0.00419477 0.0159576 0.499856 -0.236594 0.0222197 -0.520871 0.00528795 -0.102486 -0.615237 -0.014425 0.992179 -0.43965 0.252998 -1.31961 -0.155437 -2.43408 0.600898 -0.395426 0.534325 -0.996448 1.47964 -0.462502 0.146357 -0.00281198 0.31645 0.125792 -0.0436078 -0.541602 -0.287574 -1.36763 0.00340233 -0.410004 0.591952 0.133302 0.24208 0.11213 -0.575436 -0.0366559 0.0797025 0.111152 -1.75143 -0.140847 0.39078 -1.00596 0.389922 -0.745351 -0.239821 -0.295163
some 0.0789258 0.405912 -0.602151 0.0961716 0.0611246 -0.102565 -0.427402 1.45209 -0.0367811 0.410293 -0.267187 -0.0231128 -0.624364 0.171378 0.0812432 -0.176242 0.313379 0.0480635 2.65704 1.02022 -0.00338632 -1.17652 -0.428166 -0.820431 -0.0862459 -0.901646 0.487918 -0.303155 0.319595 -1.49536 -0.122253 0.322242 -1.25046 -0.892707 0.0458824 -0.649661 0.244146 0.490383 0.221975 0.240248 0.757225 -0.243272 0.0371817 -0.168591 -2.00161 0.282465 -1.05149 -0.541132 0.270675 1.36896 0.705123 -0.252806 -0.325052 0.251789 -0.586708 -0.0599242 -0.498431 0.0550438 -0.254812 -1.29179 0.0653062 -0.388544 -0.447471 -0.059352
State 1.12798 1.68983 -0.807617 0.240609 -0.115013 -0.513119 -0.430537 0.393136 0.276736 1.63143 0.529815 0.711314 0.462158 0.347085 -0.122869 1.22725 1.47308 -0.167683 -0.149449 0.787261 -0.328626 -1.72848 -0.0127339 -0.240999 -0.280981 -0.200774 -0.867552 0.0606807 0.061938 0.731759 0.268737 -0.0733117 -0.274657 -0.483734 0.553597 0.00596554 -0.371804 -0.0100871 -0.454088 1.28274 1.04722 1.22526 -0.923092 1.09419 0.344809 -0.822382 -0.826959 0.0497861 -0.275659 0.870118 -0.023476 0.600967 -0.0292745 0.535193 0.0302992 0.565593 -2.42977 -0.953477 0.404638 -0.923143 -0.518996 0.00780011 0.0193798 -1.32972
new 1.38218 2.39504 -0.588453 -0.249957 -0.918818 0.0538732 -0.440402 0.249517 -0.170149 1.87754 -0.360725 -0.302116 -1.29308 -0.00150282 -0.773911 -0.404469 0.122725 0.265085 0.472668 -0.574284 1.1572 0.25161 -0.278891 -0.863244 -0.440153 0.191868 -0.477923 -0.945475 0.357108 0.210829 -0.276323 -1.60018 -0.093981 0.0373643 -0.029121 0.683898 1.11569 -0.181286 0.424351 0.43758 0.0222122 0.00450583 1.45261 -1.19908 -1.33905 0.0534377 0.238508 -0.683245 0.0390799 -0.660494 0.436535 0.486638 0.978991 0.170995 -0.363619 -1.71086 1.08215 0.202731 0.115084 -0.545728 0.341397 -1.11269 -2.24503 -0.11301
they 1.02407 1.63715 -0.394041 0.826599 1.11895 -1.00705 0.436988 0.0320025 1.02474 -0.18221 -1.86473 2.00152 0.844631 0.724141 0.401144 -0.208022 -2.88445 -0.747391 -1.54306 -0.822767 -0.693957 -0.131657 -1.03147 -0.11532 -1.14994 -0.148609 0.973319 0.356857 1.23555 -2.08393 -1.38351 -0.182327 -1.32126 -2.57018 1.72784 -6.39035 -0.0175276 -3.39952 1.30803 -0.663475 1.62686 1.18513 -2.46306 -0.576919 -2.2813 -3.12386 -3.04143 -0.553727 1.64362 -0.561948 1.84416 -2.06193 0.911722 3.49548 -1.55668 0.673258 -2.38206 -0.255848 0.644602 1.1416 2.9602 -3.23039 -1.55231 0.752961
were -0.153942 -0.67629 -0.920753 -0.0230788 0.571301 0.473238 -0.236834 0.79115 -0.360327 -0.752671 0.173722 -0.596567 0.151304 0.41251 1.51104 0.513357 -0.413157 -0.554117 -0.0550586 -0.306797 -0.106714 0.67454 -0.719748 0.260981 0.332466 -1.97764 -0.0291946 -1.71712 -0.0163651 0.249485 0.202991 0.166306 -1.68693 -0.551346 0.304623 -0.0979716 0.0871725 -0.763657 -1.17975 0.0660635 1.46169 -0.475941 0.433276 -0.266951 -0.81697 -2.14954 -0.554836 -0.79735 -0.341037 -1.0967 -1.78602 0.593902 0.0424199 1.12317 1.3406 0.538712 -0.484523 -0.80399 0.256157 0.18541 -0.291862 -1.00239 0.144827 0.640637
up -1.2061 -0.0724181 0.204117 -0.310566 -0.589384 -0.404088 -1.11151 0.164051 -2.22805 0.58505 0.688124 0.847609 -0.992679 0.75018 -0.293325 -0.45527 -0.783997 2.67335 0.306103 1.18993 -1.03633 -0.746048 -0.152251 -0.124337 -0.14501 0.826146 0.133733 -1.85306 1.81598 0.973987 -0.337205 -0.208706 -0.301007 -0.783619 0.0222066 -0.955648 0.999554 0.949784 -2.89294 0.384388 -0.807919 1.33567 -0.628978 0.0346198 -1.56418 -0.386837 0.770986 -0.366314 0.350446 -0.504876 -0.0219742 -0.328867 -0.469459 0.0840691 -0.701493 -0.451082 0.0674721 0.253243 -1.34639 -1.52693 -0.00605067 -0.274855 0.146111 -0.620715
million -0.0522296 0.190906 -0.374206 1.37265 0.173039 0.106541 -0.758445 -0.0336381 0.770071 0.825592 0.457386 0.0746015 -0.708281 0.271193 -0.0145443 0.0146496 0.613587 2.51725 -0.29353 -0.238688 0.811743 -0.461814 -2.12301 0.477513 -1.24824 0.692264 -0.424381 -0.136201 0.231125 0.281596 -0.0143341 -0.528243 0.00672244 -0.436661 0.152334 -0.500792 -0.509364 0.158405 0.144818 0.217428 1.17518 -1.70946 0.852825 -1.18689 0.0525892 -0.0522717 0.914032 0.486298 -0.230854 0.0961213 -1.81234 -0.227174 0.21708 -0.527635 0.89131 0.612606 -0.721429 -0.259603 0.706487 -0.168166 -1.20455 -0.417221 0.00724335 -0.643777
I -0.211243 0.593277 0.287961 -1.56394 -1.46665 -0.411909 -0.464237 0.333248 0.365689 -0.609725 -0.0822747 -0.521036 2.13295 1.82711 -0.817565 1.23629 -1.18725 0.950921 -0.990624 0.843203 -0.0328625 0.34084 -0.490378 -0.815054 0.578682 -0.261209 -0.115123 -1.15479 0.0315416 0.57075 0.238747 -0.297916 -0.684622 0.215255 0.698244 0.154219 0.126149 -0.0323106 1.38726 1.29778 -0.319886 0.99546 0.184878 -0.406654 -0.171813 -2.6832 -0.869859 -0.222418 -1.0372 0.298757 -0.457863 -0.637645 0.0700302 -0.191735 -1.38645 -0.340469 0.00351109 -0.282051 1.02686 0.509006 -0.485306 -0.0569551 -0.502733 -0.694031
program -0.278499 -0.112424 -0.609099 0.671199 0.844127 -0.115234 0.111025 -0.839535 0.322841 0.278202 0.45771 0.612507 -0.0983866 -0.276841 -1.03256 1.81758 -0.176621 0.297519 -0.406214 0.289952 0.271708 -0.895034 -0.702505 0.132958 -1.45754 -0.121914 -0.011441 0.0859134 0.67189 -0.138088 0.63224 -0.264049 -0.0700059 -2.14372 0.314952 -0.62132 -0.436784 0.0297193 0.875897 0.26081 0.93495 -0.447488 -0.844783 -1.82975 0.0140897 -0.613287 0.554686 0.222531 -0.54798 -0.15417 -0.016777 -0.0109397 0.749462 0.303834 0.299672 -1.06169 -0.437316 -0.417847 -0.464431 -1.12757 -0.750503 -0.33124 0.018088 1.12399
plan -0.34109 0.0129668 -0.238411 -0.387289 -0.127702 1.20724 -0.307091 0.7921 0.12046 0.997448 -0.192378 0.486583 -0.0704378 -0.289725 0.403537 1.35296 1.25312 -0.27779 1.09561 -0.13845 0.279918 -0.421593 -0.203019 -0.504833 0.157695 0.839418 -0.55298 -0.802358 -0.602935 0.86836 0.0256408 -0.0679013 0.320245 -0.0111456 0.367521 -1.35073 1.14662 -0.477039 0.128138 1.15785 -0.066905 0.201343 -1.06284 -1.26588 -0.41949 -0.788033 -0.0426744 -1.23353 -0.266144 -1.38737 0.00202288 0.695762 0.274469 0.235236 0.55485 0.0206352 -0.0928533 -0.69587 0.238814 -0.387682 1.232 -1.4429 -0.165075 0.987465
but -0.54303 0.0288501 -0.587424 -0.982071 -0.434746 -0.122867 -0.288392 1.33033 -0.266382 0.512045 0.994307 0.00608761 -1.79117 -0.342858 -0.416453 1.30918 0.00701869 -0.411944 0.657493 0.63259 0.385485 -1.08535 0.170025 -0.185876 -1.13182 0.112111 -0.387296 -0.704222 0.229757 0.636044 0.860146 -0.688319 -0.0169358 -0.155408 0.89972 0.551526 -0.0471433 -0.595491 -0.574635 0.100459 1.27084 0.57443 -0.409223 1.1025 -0.375742 -0.505297 0.192605 -0.756799 0.251434 -0.374363 -0.026303 -1.6396 -0.646989 -0.546514 -0.230773 -0.231174 -0.0162682 -0.0915155 2.0892 -0.427301 -0.198015 -0.310103 -0.0468209 -0.680309
made -0.622777 0.348603 0.170574 -2.57611 -0.290297 -0.472965 0.321769 0.0701213 -0.0100133 -0.348755 -1.01844 0.344349 -0.32692 0.755729 -0.14252 0.878736 1.05567 -0.101583 1.50166 1.70242 0.219313 -1.74983 -0.364975 -0.65076 1.19571 -0.185339 0.131738 -0.280046 0.335695 0.65173 0.0503932 -0.126776 1.63662 -0.558089 -0.0532118 0.139889 -0.453636 -1.8273 -1.07955 0.622723 0.00985681 0.689275 -1.32813 -1.19459 -0.260645 0.209347 -0.434167 -2.05068 -1.41853 1.54834 0.36176 0.419125 1.16738 0.389068 -0.503701 -0.0395461 -0.0623472 -0.17175 -0.0251495 -0.385024 0.549772 0.705135 -1.15248 -0.0307627
A 0.938392 1.32393 0.345388 -0.513724 1.89055 -0.609552 -0.049958 -0.078976 0.203251 1.06609 0.38325 -0.342993 1.60418 -0.863917 -0.888985 0.506518 -0.491292 0.126325 0.748392 -0.0305682 -0.213231 0.0261661 -0.595336 -0.654212 -0.439989 0.603972 -0.648916 -1.51344 0.189284 -0.296538 -0.505522 -0.820807 0.991861 -1.02502 -0.427579 -0.453342 -0.0522047 -0.379896 -2.21592 0.873718 -0.0696332 0.029335 -0.27687 -2.41331 0.651214 -0.151898 0.185701 -0.196128 -0.125735 -0.26315 -0.58444 -0.172282 -1.92347 -0.536767 0.418803 -1.78032 -0.579578 -0.747277 1.07327 -0.277549 1.27654 -0.934844 -1.26133 -0.206657
first 1.74411 0.343823 -0.355258 0.425368 -0.995014 -0.20346 -0.826166 0.863064 0.869096 0.638009 0.150057 1.0997 -0.306768 2.53988 -0.437793 1.18603 0.172086 0.0253485 0.459431 1.18939 -0.925871 -0.967593 0.11773 -0.987899 -0.174331 1.82098 0.807243 0.246927 -0.436785 -0.0705103 -0.164378 0.533711 -0.111017 -0.596166 0.0546044 -0.475099 -0.857865 -0.935648 0.401629 0.566946 1.52949 -0.437529 1.41048 -0.190231 -0.553091 -0.720741 0.479745 0.239955 -0.827461 -0.470626 0.000419346 -0.459455 0.596261 -0.244034 0.386238 -0.793913 -0.943063 -0.587996 1.78587 -0.219919 -0.269539 -1.24682 -1.5675 -1.22538
But -0.576877 1.64271 0.607965 -2.69634 -1.14404 -1.83267 -2.43383 -0.344646 0.128283 0.694661 -1.80297 0.636016 -0.325715 0.574306 0.823027 2.42841 1.24545 0.419271 -1.84965 2.58898 -0.0577153 -0.216521 -3.01487 -3.06549 -0.0993077 0.20559 -1.47381e-05 -0.57764 0.484744 0.3208 0.328826 -1.20567 1.90357 -1.64023 -1.04595 -0.379652 1.49823 0.283523 1.47938 -1.12338 -0.0315179 -2.23582 1.5666 0.52592 -1.40916 0.754914 -2.00321 -1.12343 -1.29068 -1.80665 -1.76219 -1.47439 1.69833 2.42009 -0.346692 -2.28975 -2.05113 -1.72323 -0.457369 -1.27006 0.534357 0.973141 1.77507 0.854752
In 0.392869 -0.73994 -1.00456 0.0752327 -0.534727 -0.0572193 0.513432 0.248839 0.468384 0.776341 -0.00188445 0.327999 -0.414855 0.232844 -0.168762 -0.182189 0.801492 -0.0027629 0.713944 0.154895 -0.351159 -0.202235 0.552731 -0.468078 -0.463045 -0.331954 1.17852 -0.332245 -0.0484393 0.451764 0.245665 -0.0842478 -0.360675 -1.04432 -0.0359473 -1.22826 0.937964 -0.25682 -0.637793 0.984097 0.664097 0.846156 -0.13339 0.0659366 0.0399244 0.014182 0.292554 -0.208513 -0.138645 1.3274 -0.470373 -0.975556 -0.46642 0.214371 0.537288 -0.177517 -0.132356 -1.073 0.188883 -0.261543 3.22913 -0.904421 0.372116 -0.746946
United -0.609914 1.12472 -0.320656 -0.462761 -1.693 -1.10277 0.261714 -0.315045 0.376096 -0.768608 -0.17024 -0.259736 -0.181907 1.64203 -0.203445 0.50512 -0.10277 0.860775 -0.176017 -0.729316 -0.644565 0.426095 -0.149285 -0.82713 -0.103438 0.22376 -0.796976 -0.726249 -0.24199 -1.28746 0.329312 -0.81554 -0.231115 -1.28812 0.795967 0.0136148 0.533176 -0.278881 -0.201285 -0.416089 1.73416 -2.18999 0.760935 -0.266908 0.3075 -0.311633 -0.855747 0.558364 -0.261425 0.572556 -0.350957 -0.00642199 0.649273 2.2571 -0.145753 0.284028 -0.618915 -0.0544176 0.425162 0.238993 0.660404 -0.0110895 -0.298333 -0.556495
Texas 1.89989 -1.29108 3.55866 -0.415168 0.519761 1.6376 0.574363 1.5611 0.851599 -1.5536 0.960269 -0.26005 1.03019 4.04693 0.419759 -0.740354 -1.08199 -1.16737 2.16067 0.256599 2.57928 -0.845877 -3.04176 -0.947745 0.56308 0.396626 0.0169404 -1.54361 3.17269 2.63368 2.02773 1.05354 -1.38602 1.15135 1.38039 -2.21848 3.66278 0.611699 -0.595156 3.58746 0.783559 2.78156 -1.84394 0.326168 -0.217046 0.039963 -1.1785 -1.50579 -1.79256 -0.372334 -1.21807 1.0816 -1.36975 2.34117 -1.0687 -1.32907 -1.03366 0.136506 -0.35897 -0.529666 -0.380358 -0.0832159 -1.56832 1.65831
their 0.226478 0.498994 1.18894 0.956955 -0.370716 -0.73239 0.0408158 -0.00742404 0.325475 -0.226418 -1.81119 0.802086 -1.2599 0.757973 -0.493287 0.724631 0.0509154 0.544293 0.885158 0.592301 1.32685 -1.699 -0.0309224 0.50891 -0.495304 -0.123916 -0.624286 0.0745317 -0.126751 -0.0621686 0.920526 0.393609 0.0755622 0.918556 0.543739 -0.282939 -1.0285 -0.655619 -0.648384 0.520229 0.654873 -1.22597 -1.26722 0.0514778 -0.339799 -0.807531 0.0652393 -0.0382937 -0.00239334 -0.624964 0.186181 -0.64605 0.965804 0.534133 0.310625 -0.417219 -0.674972 -0.326181 0.305742 -0.790509 0.144319 -1.53247 -0.631694 -0.392926
jury -0.450569 0.261386 -0.564479 -0.486939 -0.201431 -0.142974 -0.7119 0.341714 0.668174 -0.510657 -0.0836229 -0.286982 0.187574 0.162662 -0.117464 0.474329 1.33187 0.891162 0.423601 0.151021 0.351082 0.522013 -0.938554 -0.0791047 -0.907607 -1.1756 0.0406794 -0.604862 -0.0871094 -1.27477 0.493672 -0.037274 -0.827697 -0.47213 1.641 -0.238918 -0.141642 -0.593755 -0.30356 0.289689 -0.539968 0.307914 -0.861659 -1.44282 -0.26707 0.0886681 1.07747 -1.71168 -0.429652 -0.216411 -0.0913937 -1.49194 0.256415 -0.168852 0.144337 -0.477203 -0.872104 -0.37961 -0.309469 -0.0741337 -0.0468212 0.352644 0.0844208 -1.72366
after -0.760968 -0.0467745 -0.034971 -0.585096 -1.75925 0.992387 0.0392702 0.445375 -0.290589 -0.384411 -1.01399 -0.522425 -0.686421 0.0494465 -1.04817 0.200416 -0.000426752 -0.534855 0.643058 -0.290353 -1.19094 0.24414 -2.00952 0.295142 -1.55213 0.975085 2.46432 -1.01086 0.604477 -0.182241 -0.735921 0.425019 0.13646 -0.504975 0.763192 -0.156539 0.322786 -0.161736 -0.0923801 2.23551 -0.909123 -0.910885 0.659364 -1.4369 -1.8535 -1.77337 -1.0501 -0.52505 -0.0316938 -0.0832875 0.59586 -1.46114 -0.950568 1.88207 0.206511 0.1011 -0.285676 -0.519574 0.533986 -0.046795 -0.206626 -0.0831325 -0.711451 -1.12172
city 0.00713627 -0.135969 -0.0342296 -0.884464 -0.0473758 1.34337 -0.127119 -0.0331845 0.461557 0.648003 -1.33895 0.432457 -0.433784 0.637168 0.553255 0.0279452 0.755921 0.501945 -0.73429 0.445589 0.329933 -0.422983 -1.48923 -2.05918 0.00370334 -0.99678 -0.644484 -1.10883 0.113802 -0.0608792 -0.731526 0.0876472 -0.00163813 0.00326038 0.843158 -0.977273 0.969519 -0.48088 -0.401639 0.244465 0.063317 0.153843 -0.84589 -0.0966924 -0.705205 0.0240864 -0.238341 0.36613 -0.942254 2.13517 -0.587735 -1.31417 0.495011 1.79412 0.679781 -0.125719 0.338035 -1.12955 0.825795 0.199682 -0.423193 -1.4368 0.456654 0.367245
all -0.553677 1.3438 -0.139575 0.697469 0.0224592 0.30818 -0.0171594 -0.0637025 0.210356 1.68683 -0.988441 0.166667 -0.338811 -0.0985799 0.324979 -0.342158 0.427864 0.716791 -0.0919227 0.257547 0.810668 0.748787 -0.026856 -1.78672 1.08466 -2.23927 0.385215 -0.236009 0.799153 -2.13461 1.29955 0.165779 -0.609412 0.337811 -0.43359 -0.0280614 -0.790448 -0.215431 -1.42599 0.020256 -0.0193016 -0.0303282 -1.58991 -0.383784 -0.796522 0.269434 0.238496 -0.259112 0.223982 0.263733 -0.118523 -0.0304976 0.228441 1.82912 0.801775 -1.49639 -0.668189 -1.07597 0.298371 0.242244 1.44978 0.906633 0.510409 -1.31879
also 0.155711 -0.326748 0.179079 -1.41581 0.568804 -0.664547 -1.14161 1.68254 -0.0943206 1.062 -1.02686 1.95403 0.90427 0.822162 -0.545684 -0.722086 0.825465 0.921006 -0.0445842 -0.356308 0.621557 0.797942 -0.630928 0.939649 0.0628104 -1.33539 -0.308941 -1.87636 -0.270573 -0.710908 0.149371 1.25488 -1.21453 0.00915398 0.237527 -1.72913 0.489286 0.596873 0.0437997 -0.226686 0.66498 -0.305239 0.237637 0.695194 -1.27666 -1.00899 0.304602 -2.15194 -0.0532645 0.0535615 0.237551 -0.784943 1.06315 -0.54849 0.0113575 -0.466079 0.359775 0.307859 0.31807 -3.54648 0.0845951 -1.79944 -0.22775 -0.0521986
should 0.244771 0.119324 -0.709316 -1.68969 -0.81443 0.360869 0.349555 0.219688 0.757146 0.115746 0.595826 -0.789769 -0.153959 0.463249 -0.546398 -0.811289 -0.145583 0.0950398 0.331567 0.926498 0.662632 -0.584732 0.25269 -1.90575 -0.366789 -1.6809 -0.422246 -0.159433 -0.430202 -1.09561 -0.619034 -0.302928 -0.79696 0.315873 -0.29129 0.207084 0.179306 -0.596587 0.159455 0.478335 0.150483 0.445983 0.181085 -1.07283 -0.896893 0.102467 0.844431 -1.41253 -0.362943 0.491872 -0.566632 -0.480612 -0.256508 1.22906 0.319034 0.552021 0.138751 -0.602923 0.187061 -1.38051 -0.743568 0.525658 -0.201191 0.635825
Republican -0.192232 -0.423569 0.396829 0.355477 -0.163199 0.05967 -1.15692 0.821864 -0.750472 -0.0328065 -0.282737 -0.0531032 -1.308 0.012492 0.721073 0.445395 0.625845 0.0305369 0.743995 0.124837 -0.0224959 -0.175117 0.135405 -0.0449679 0.190538 -1.02251 -0.650778 -1.09814 1.26826 1.81985 1.67758 -0.153062 -0.249418 -0.0241126 2.90107 -1.42263 0.228094 -1.26481 0.000640261 -0.569852 0.198374 2.37388 1.78612 0.538734 -1.13361 0.621211 0.664727 -0.0649232 0.296892 0.296434 0.0328516 -0.683355 -0.963143 -1.07279 0.978384 0.198384 -2.43011 -2.90812 0.419888 0.0812744 0.361701 -0.0144034 -0.631771 -1.05845
committee 0.0428665 0.298879 -0.956843 -0.955024 -0.219352 -0.221824 0.260571 0.33295 1.17189 -1.19382 -1.08326 -0.29625 0.598089 0.116285 -0.466828 -0.00161212 -0.311087 0.0662768 0.473981 -0.0101938 0.317774 0.918018 -0.491974 -0.390008 -0.9604 -0.0717607 -0.226379 -1.21399 0.407978 0.250395 0.37681 -1.26887 0.0277595 0.0617335 1.80411 -0.85842 -0.0617871 0.337328 -0.212142 0.19322 0.438247 1.30712 1.0558 0.0475148 -1.06874 0.135212 -0.041771 -1.00771 0.203574 2.17288 0.615255 -0.0843434 0.155836 -0.408386 -0.493503 -0.443167 -0.831267 -2.1043 -0.238497 -0.250416 0.026308 0.34838 0.350075 -1.29424
time -0.31284 0.37245 0.226898 0.926762 -1.12283 -0.372657 0.11391 -0.328963 0.998379 -0.285689 -0.12958 0.344168 -0.683887 1.28895 -0.108794 -0.550619 -0.831165 1.30014 -0.0595108 1.82452 -0.80848 -0.100087 0.100445 -1.023 0.20862 -0.113667 0.729976 0.0720394 1.58884 0.36981 0.531839 -1.12699 -1.88225 -0.00420285 1.29427 0.345285 0.157121 0.0477494 -1.83288 0.530541 0.960817 -0.228125 -0.819165 0.33817 -0.174871 1.15153 0.723638 0.213518 -0.649722 0.191151 -1.53564 0.919444 0.155048 -0.242792 -0.192599 -0.349124 -0.127464 0.0706811 0.318778 -0.147867 -0.0209295 1.00502 -0.526608 -0.679836
can 0.137568 -0.704373 -1.9133 -1.30234 -2.1602 0.841809 0.583605 -0.0505366 1.11078 2.13486 -0.269507 0.51571 0.95678 -0.0584682 -0.110157 -0.414375 -2.33285 0.974769 1.08517 -0.0473839 0.666041 -0.918046 -0.29063 -0.165954 -0.0355951 0.0265344 -0.323437 -0.421989 0.270338 0.33242 -0.300501 -1.32812 0.390283 -0.0934025 0.0843773 0.834107 0.947061 0.0815646 -0.978625 -0.340837 0.737164 0.191395 -0.500442 0.20101 0.166834 -0.641369 -0.418593 0.157268 -1.37775 -0.913744 0.501943 0.298438 0.0137045 -0.390893 2.35554 -0.519124 -0.126196 -0.81489 0.796972 0.136295 0.511409 -0.522136 0.0353649 -0.888914
public 0.220819 0.637134 -0.207756 -0.397863 -0.91953 -0.365296 -0.231029 3.1306 -0.156769 0.161416 -0.986202 -0.0601061 -0.859774 0.388622 -0.64062 -1.16016 0.182879 -0.365335 0.747905 0.675922 0.122963 -0.123811 -1.51167 -0.392708 -0.868457 0.7556 0.110439 -1.2893 -0.121915 -0.531634 -0.0849686 0.200878 -1.71079 0.860303 0.695685 0.482586 -0.0462454 -0.35327 -0.0211793 0.922602 0.0274155 -0.331349 0.465726 -1.6549 -0.276401 -1.44136 0.082855 -0.440821 -1.00738 -1.3081 0.0986975 0.0297003 -0.0918804 0.315623 0.666303 -1.61364 -0.272699 0.07892 0.498863 -0.440179 -0.0771204 -0.371657 0.118664 -0.285462
home -1.05951 1.99651 -0.0748591 -2.16548 0.314495 0.561569 -0.858182 -0.00307291 -0.019566 0.761052 0.341384 0.0408776 -1.17912 0.157418 0.124102 0.620846 -0.244449 0.903042 0.438634 0.0708184 0.207838 -0.217359 -0.363771 0.576408 -0.578688 1.30499 -0.731677 0.0318494 0.39826 -0.46868 -0.825161 -0.983432 -0.62467 -0.164515 -0.310602 0.572705 0.660173 -0.173302 -1.57039 0.0417093 0.43548 -0.520996 0.49569 0.139606 0.0247531 -0.605567 1.02691 0.376457 -0.169756 0.11305 -0.186141 -0.177956 -0.420508 0.366313 -0.112857 -0.868534 0.200282 0.209326 0.333838 -0.234247 0.876794 -0.30148 -0.231224 -0.152713
over 2.51949 -1.41978 -2.3032 0.299909 -0.0154143 3.1262 -0.795036 -0.30419 1.68759 2.0082 -3.1765 0.85573 2.37297 -0.626746 2.18776 1.54732 -0.133649 -0.751875 1.00015 -2.01394 0.932693 -0.689293 -1.47552 1.56892 -1.63891 0.31194 2.84147 -2.4772 0.229809 -0.34456 0.217968 -0.260384 1.45667 -0.984804 4.85828 -1.6165 3.85008 0.194194 -2.15122 -2.34525 3.31637 -0.324798 0.00635065 -0.846621 -0.306874 -0.262218 0.271896 -1.49908 0.164403 0.30076 -1.21854 0.610822 -0.849799 1.08773 -1.23149 -0.299816 -0.896902 0.960696 -1.08597 0.858361 3.50805 -0.881161 -1.219 -0.937808
vote 0.64638 1.32145 -0.501111 -0.622216 0.486603 1.67949 -0.896454 1.50325 0.322665 1.08463 -0.136605 0.982152 0.476007 0.596347 0.213868 -0.0581052 0.0247234 0.48551 -0.633864 -0.470297 0.159776 -0.322893 -0.269452 0.182904 0.984365 0.719418 -0.128896 0.198401 0.169971 -1.17475 0.408175 0.229782 -1.17548 -0.588737 0.245322 -2.35676 -1.51306 -0.545059 -0.581253 0.0607328 0.479705 0.587151 -0.619817 0.541348 -0.819198 -1.81396 -0.476305 -0.533774 -0.109926 -1.40526 -0.215321 0.581197 -0.946267 -0.165417 -0.085405 0.277878 -0.291987 -0.494374 1.6033 0.597732 0.330166 -0.240768 0.59485 -0.720775
County -0.921327 0.206643 0.313739 0.880594 -0.230277 0.320859 -0.13063 -0.18011 -0.0460338 0.0336436 -0.0601458 -0.0623902 -0.740174 -0.664855 -0.407964 -0.672123 1.25165 0.40895 0.283285 0.480205 0.994967 1.22136 0.0932544 -0.495293 0.236593 -0.885173 1.37643 -0.159342 -0.0821615 -1.60818 0.236774 -1.99361 0.131688 0.0595363 0.158413 -0.0532844 1.82026 0.189094 -0.325357 -0.237113 0.574678 0.632462 0.170962 -0.00459824 -0.673378 -0.000466271 -0.287941 0.202327 0.0987175 1.74172 0.924677 -1.14048 -1.5056 -0.0961749 1.13267 -0.216634 -1.25306 -0.00843869 0.0857378 -0.28545 -0.15831 -0.690358 -0.74121 0.541775
years 0.299539 -0.886711 0.0597077 -0.0191837 0.128241 0.265377 0.128871 -0.328938 -0.193447 1.09345 -0.0567772 -0.186549 -0.295549 1.80136 -0.0188906 0.202314 -0.417361 -0.766459 0.706106 1.28019 0.0926163 -1.43294 -0.124329 -0.207169 -1.01027 -0.678669 -0.473864 -0.94014 0.755267 0.304005 -0.0761998 0.214867 0.366195 -0.619708 -0.515804 -0.107011 2.07129 0.0164175 -1.65747 0.451046 0.0593703 0.158493 0.621312 0.0191488 -1.22591 -0.448287 0.0690018 -0.899725 -0.396772 -0.0477416 -0.0183491 -0.92963 -0.376426 -0.328838 0.191042 -2.04571 -0.614374 0.040929 0.339928 0.247131 1.08506 0.000950402 -0.64023 0.171574
federal -0.594896 1.69322 -0.944311 0.403712 1.1771 1.02463 -0.131641 0.00172551 -0.0253091 -0.018408 0.302884 0.196136 -0.00872871 -0.432872 0.254558 -0.210029 0.366367 0.389473 0.286161 0.46479 0.369475 0.745011 -0.641853 0.25134 -0.308037 0.311147 -1.17582 -0.0835198 0.0187725 -0.83784 0.25275 -0.896692 0.331174 -0.41561 1.51672 -1.08765 -0.513019 -0.122591 0.053277 0.18744 0.89039 -0.0900947 -1.36403 0.0670015 0.322428 -1.52075 0.387311 -1.5795 -0.398538 -0.449648 -0.0984753 -0.0218242 1.17676 -0.00825901 0.0225112 -1.41477 -0.019699 -0.16946 0.210385 -0.875739 0.00382084 0.422577 -1.07497 0.899484
Kennedy 0.987427 1.14633 -0.936435 1.17933 -1.20475 0.69768 -0.0881335 -0.604227 0.0691735 0.276789 -0.125439 0.519227 -0.447068 0.283558 0.762938 0.0825347 -0.307467 -0.284438 0.497514 0.00637952 0.0464244 0.0286473 0.160098 -0.166899 0.373037 -1.38947 0.30707 -0.0582323 0.161596 0.507129 1.64428 -0.0358193 0.611551 -0.219098 1.21837 -0.288028 -0.419773 -1.47539 0.814144 0.913749 1.64918 1.72683 -1.14999 0.414872 -1.45292 -0.10066 0.262084 -0.413194 -0.914287 -1.45071 0.631755 0.572551 0.244449 -0.095434 0.168753 -0.137771 -1.50224 0.0227598 0.208092 -0.142523 0.624341 0.333549 -0.15051 0.479455
session 0.0621695 0.91432 0.0197813 0.749481 -3.7995 -0.128603 -0.883691 -0.496404 0.884248 0.0380225 0.713439 1.37693 -1.16891 3.36823 -1.27809 1.30739 -1.63908 -0.909232 0.303678 1.48012 -1.19104 -4.12294 1.78152 -0.385084 -0.272384 2.07642 -0.105697 -0.120224 -0.385978 2.01944 0.477878 -1.83346 2.96822 -3.14032 0.708084 -0.539125 3.69321 -2.06786 0.426089 -0.2251 1.7879 -2.87575 -0.346412 -1.87716 -0.188222 0.689414 0.640079 1.92872 -2.3042 -3.95264 -0.0260073 0.408644 -0.88639 2.12442 -1.6686 0.29935 -2.52581 -3.03564 1.5002 -0.203421 1.16389 1.74808 -4.34477 0.359083
This 0.946432 -0.136151 -0.437677 -1.48343 -0.232149 2.74133 0.0237006 0.146704 0.492202 0.0210549 0.707128 -1.35349 1.00686 -0.241703 -1.71215 0.570981 -0.305117 -0.145861 0.415882 -0.21198 -0.0970519 -0.794023 -0.931376 -0.0479041 0.249348 -0.470842 -0.26837 -2.05856 0.19866 0.85961 0.0648598 -0.476773 0.3226 0.266748 1.7583 -1.49099 0.836607 -1.62265 0.189729 0.490797 0.468146 -1.13887 -0.157635 0.118713 -0.142716 -0.518405 0.724652 0.480488 -0.833736 0.440782 -1.27016 -0.213918 0.0838446 0.0919266 0.535446 0.345498 -0.311943 -0.237468 1.90595 -0.842408 0.557199 0.234306 -0.801454 1.41116
could 0.0913092 -0.274475 0.0736745 -0.0656212 0.167895 0.364182 0.304842 1.04743 0.174689 0.117447 -1.04441 0.0394695 -0.172243 1.3211 -0.601964 0.0893366 -0.70845 0.289225 0.358836 -0.153741 0.994807 0.0778208 -0.160513 -0.886971 -0.411849 -0.658791 -0.141662 -0.416025 -0.312423 0.629647 -0.0892373 -0.148418 -0.408066 0.537338 0.275343 -0.463986 0.756072 0.265648 -0.866591 0.932025 0.00849366 0.346992 -0.204948 0.486349 0.142609 -0.0124176 0.575029 -1.69372 -0.248796 0.689244 -2.23365 -0.586867 -1.13547 0.358156 0.351066 -0.218294 -1.30693 -0.430246 0.0798513 -0.144016 -0.431561 0.314012 -0.1329 -0.619981
them 0.461535 0.210628 0.572837 3.17841 -2.03553 4.06872 -3.14712 -0.00070605 4.07051 -1.23322 -1.92616 -0.174035 1.90982 -0.706049 -0.187274 -0.393148 3.00536 1.14243 1.12997 0.131169 0.803116 -4.77787 0.173469 -0.200183 1.85762 -2.17551 0.74839 -3.11702 -0.422598 -0.469564 -1.01143 0.874409 -3.71949 -1.09959 -0.948805 -0.628731 3.38466 -1.69705 -0.0104532 -2.2085 -0.091493 1.25907 1.66127 -0.813145 -1.39127 2.21186 1.1546 -2.81595 -1.86375 -2.12754 2.25139 -0.464893 -0.526834 3.40156 0.350902 0.298735 -0.378645 0.960193 -0.639429 0.958827 2.87373 -0.111412 -2.0948 -0.491964
expected 0.64202 0.0391483 -0.381392 -1.18859 -0.514752 0.59152 0.933536 -0.0398966 -0.310651 2.17458 -0.0594035 -0.825603 0.212871 -0.344138 -1.09114 0.0825663 -0.156253 0.368898 0.695662 -0.296823 2.06596 -0.578623 0.554893 -0.247582 0.11778 -1.15547 -0.238796 -1.50339 1.07435 0.126134 0.0107184 -0.445798 -1.28796 -0.671041 -0.406419 -0.0691413 -0.760561 0.552593 -1.3554 -0.604616 0.756933 -0.109476 -1.13919 -0.926686 0.252608 -0.0437322 -1.01836 -0.0297209 -1.48849 0.685812 0.253364 -0.455403 0.122667 0.00266356 0.118899 0.0565855 -0.0399779 -0.0202169 0.0415138 -0.097715 0.0288305 -0.0765232 -1.68283 -0.381667
such 0.0275123 -0.825752 -0.764936 0.582003 0.447757 0.218986 -0.0782046 0.0563079 0.368898 2.45892 0.233149 1.84544 1.81846 -0.232233 -0.532379 -0.32325 -0.377351 0.966386 1.12651 0.443673 0.373544 -0.0505682 0.511483 -0.0567902 -0.131141 -0.321954 -1.11741 -0.175181 -0.730913 -0.489117 -0.0617458 -0.475289 -1.36263 -0.351184 0.226754 2.40527 -0.258459 -0.267566 -1.18688 2.55798 0.319284 0.781857 -1.68495 -0.0744365 -0.501506 0.653353 0.717152 -2.13802 0.182502 0.951927 -0.111731 -1.15442 -0.420314 0.594512 1.28386 -0.128245 -0.431539 -0.992663 1.71958 -0.27269 2.45248 -1.64595 0.850277 -1.52043
Legislature 0.874107 0.049537 0.0567922 -0.281896 -0.743111 0.3029 -0.21105 0.470345 0.00684791 1.18151 -0.325641 0.756454 0.021525 0.0779086 -1.34625 1.43974 0.154562 -0.00227158 -0.0195494 1.24457 1.33798 -0.908051 -0.00690023 -1.41623 0.829859 0.851242 -0.015844 -0.250115 0.795433 0.281581 0.658379 -1.3902 0.474381 -0.0114881 -0.448816 -0.404767 0.585336 -0.476983 -0.187217 -0.040123 0.50538 0.505871 0.273877 0.00875576 0.121273 0.822332 2.14075 -1.08512 -0.244853 -0.680456 0.00407717 -0.75083 1.23011 0.212049 -0.00412399 0.363247 0.467029 -1.28814 0.733996 -0.400918 0.00056111 -0.805791 0.460832 0.10304
most -0.122923 -0.346061 -1.22679 0.374695 0.913596 -0.576803 -0.0195135 0.832022 1.07367 0.152796 0.0540796 -0.218679 0.575322 -1.06612 -0.390849 -0.186361 1.71217 0.532789 -0.480235 0.72596 0.01322 -0.86867 -0.31919 -0.758129 -0.636954 1.16125 0.02963 0.745364 0.136761 1.09385 2.75908 -3.07256 -0.870505 -0.0795382 0.389946 0.846731 0.164105 0.437935 -1.40441 -0.361154 0.660811 -0.0909884 0.98982 -1.99858 -0.826693 -0.0944607 0.253231 0.350154 0.409846 -0.604542 -0.731805 0.252735 -0.963411 0.152501 -0.613163 -0.879448 -2.25738 0.748003 0.808488 0.40469 -0.531117 -1.98349 -0.385986 -2.50703
special -1.39283 0.453465 -0.156339 -1.25018 -0.46414 -0.503268 -0.332881 0.00157849 0.0577836 1.93699 -1.81905 -0.000866742 1.37151 -0.245269 -0.4443 -0.527096 -0.0219266 -0.648486 -0.259307 -0.0207496 0.0873349 0.826317 0.249655 -0.739411 -0.0127896 -0.0313664 -0.921286 -0.375046 1.44717 1.86757 0.908821 0.176823 0.420679 -1.52353 0.0150493 -0.298877 0.222195 0.332658 -1.69028 0.939166 0.0536181 -0.581364 -0.00208931 0.0715222 0.0182392 -0.670824 -0.69296 0.00839269 -0.740227 0.436278 0.197966 -1.56634 0.540784 1.34845 -0.699407 -0.864362 -0.245329 -0.136004 0.232691 -0.0168764 -0.0159753 -0.813503 -0.662252 0.972659
party -0.560242 0.477373 0.024251 0.143107 0.148395 0.406195 -0.415991 0.430951 0.24935 -1.26116 -1.00545 0.441846 -0.0580128 1.4693 -0.565767 0.117673 0.0639961 -0.062963 0.829794 0.426648 0.43917 0.305297 -0.0392601 -0.664898 0.00325418 0.338246 1.0555 0.364905 0.672998 -0.171627 0.00743943 0.232806 -2.01275 -0.242352 -0.0678144 0.0453962 -0.517836 -0.298373 0.214059 -0.463351 -0.211057 -1.49756 -1.52264 0.31029 -0.242529 0.0338565 0.86454 -1.16302 -0.230431 0.295571 0.532709 0.119184 -0.950962 -0.415567 0.158093 0.192553 -1.93398 0.202098 -0.123429 -0.0126912 0.222831 -0.624761 -0.084032 -0.445393
government 0.937029 0.540525 0.000238371 0.280737 0.169775 0.846874 0.331954 -0.015805 1.15724 0.00833656 -0.846476 0.0561919 0.376998 -0.970181 0.203248 0.0753612 -0.0494563 0.408022 0.836325 -0.161943 0.244751 -0.917252 0.281859 -0.743046 -0.0988316 0.0283363 -0.522221 -0.819536 -0.169843 0.358734 0.185956 -0.91113 -2.39082 -0.617807 0.0472946 -0.754839 -0.367906 -0.490033 -1.22051 -1.29158 0.307343 -1.10869 -1.79936 0.323458 0.739035 0.532439 0.752469 -0.196582 -2.16227 1.12794 -0.987768 -0.198622 0.644668 0.101881 -0.0607762 -0.953415 -0.39957 -0.147855 -0.0301248 -0.0534498 0.356421 -0.0431326 -1.23419 0.440593
aid 4.1924 -0.888205 -1.02932 0.98554 1.50702 1.07234 1.23056 2.68024 2.98347 0.582079 -2.14196 0.927083 0.862272 -1.00402 3.94889 -1.07488 -0.802445 -0.0672178 1.33177 -2.00997 0.472998 1.65831 -2.08839 0.809462 -4.25846 -1.6181 -0.736484 0.600018 1.61126 2.96198 4.56587 -3.26522 -2.91709 -2.6161 2.05722 -3.98423 -0.906881 -0.0767518 -4.2956 2.73518 0.205467 1.19042 0.448165 1.62826 0.27482 -0.361842 3.49124 -3.57939 0.594214 -0.288798 -2.35322 -0.230549 2.20305 1.71191 0.16084 -0.405396 -0.159864 0.415143 -0.314763 -4.34275 -1.37589 -0.467892 1.3288 1.54592
if 0.0481716 0.676366 0.0865007 -0.652652 -0.148434 2.33401 -1.05672 1.30302 0.091672 -1.12451 -0.0227798 0.61303 -1.29384 -0.355912 0.570542 2.68422 0.491502 -0.100051 0.0300825 -0.297836 1.66568 0.0166833 0.0168767 -0.198153 0.439701 0.28847 1.112 -0.371845 -0.216334 0.384503 0.587015 -0.763843 -0.24253 -0.61072 0.273218 -1.27372 0.181339 -0.290799 0.785744 -0.42373 -0.0214853 1.06256 -0.260412 -0.118939 -0.0527745 -1.20925 0.467348 -0.484064 0.339448 -0.213964 0.271478 0.151108 -0.0283729 -0.0976564 0.122846 -0.259314 -0.389339 -0.0969818 0.449762 -1.17667 -0.112337 -1.26507 -0.813297 0.141115
take 0.622316 1.37983 -0.54917 -2.80808 0.666584 0.595743 -2.77477 -0.657532 -1.21088 1.58782 -3.81004 0.0818428 4.14773 1.26446 1.23363 0.519699 2.796 2.86452 2.55815 -0.15743 -0.769738 -1.71054 -1.0283 -1.29158 -2.29765 -1.80182 -0.848342 -0.949364 2.1627 -2.84357 0.4395 0.405444 1.00485 -1.63656 -0.0584289 -1.7925 -0.1075 -3.27932 -4.15518 1.28751 -1.01006 0.637265 1.5924 0.722307 -1.71958 0.0104752 2.32535 -1.11585 0.372676 -1.52269 -2.1395 -1.07406 -2.27169 0.712504 -0.41407 -0.566162 -2.5604 1.64167 -1.24962 -3.46026 0.810305 -1.86491 -2.51807 0.945514
pay 1.65669 -0.952114 0.999393 1.33994 -0.25395 0.622364 0.626863 1.136 3.38381 -0.502802 1.74753 2.07161 -1.23972 -0.235867 1.56699 0.391391 1.8133 3.1435 1.84554 0.634819 1.3793 -0.779013 -1.63152 1.73475 1.04125 -1.25227 0.54198 2.52828 -0.0947988 2.37344 2.45107 -0.298907 -2.20646 -0.240508 0.0493319 -1.67983 1.34759 1.44671 -0.317174 2.77384 0.993553 -2.09413 -1.04083 -3.26531 -1.7739 1.27459 3.20092 -2.61637 -1.21886 -2.58731 -2.79683 0.34943 -0.151209 -1.37425 1.47862 -1.51752 -2.49732 -0.85186 -0.232784 -1.74642 0.77463 0.612035 -1.69883 1.0701
two 0.754735 1.86312 0.671942 -4.71829 -0.246384 -1.57435 1.08327 -0.712093 0.244645 2.31014 -2.14124 0.201239 1.48123 2.50988 -4.07762 2.01068 2.23364 0.0764013 2.15398 1.69395 0.601368 -1.47959 -5.66158 -6.40059 -0.121685 -0.764756 1.71188 -1.21036 0.887113 -1.72161 0.129742 2.38031 -4.5518 -0.605705 0.217201 -1.03246 3.9306 -3.56691 -1.175 0.983267 -0.258373 3.13432 -2.19139 -0.189807 1.46801 1.45965 1.5554 0.85146 0.763995 -0.780855 -1.3511 0.459535 -1.8178 1.52138 -1.97552 0.444298 -1.06117 -0.265061 0.234554 -3.55909 0.502372 1.8186 -0.314106 0.296503
into 0.0371422 -0.228572 -0.912976 -0.852965 -1.65794 -0.0452726 0.180408 -0.16034 0.648117 0.912758 -0.363052 0.147957 -0.156454 0.0381124 -0.592373 -0.928912 -0.365262 -0.122684 0.550474 0.559641 1.57622 -0.174632 -0.701306 0.195936 0.536414 0.876158 1.13122 -0.214164 -0.0279562 -0.114856 -0.335235 0.188609 -0.0394984 -0.816552 -0.377129 0.705257 0.254659 0.233728 -0.677142 -0.510823 -0.210045 0.666659 0.363788 0.363778 -1.43662 -0.236504 1.53674 -0.20257 -0.81293 0.177151 0.307939 -1.02028 -1.86369 1.11477 1.13704 -0.14823 -0.322248 -0.136021 1.58405 -0.617815 0.206295 0.0684228 -0.582045 0.733034
: -1.54906 1.32041 -0.0109924 -1.93596 -1.11909 0.524172 -0.582683 0.297523 -0.432166 -0.554324 -1.0526 1.32981 -0.0746274 -0.588889 -0.501629 1.54055 -0.197867 -0.11698 0.181261 1.2551 -0.0370201 -0.175173 0.558729 0.251788 -0.16197 0.356611 0.434219 -0.522201 -0.0173679 -0.545807 0.15368 0.0325111 0.648706 -0.114688 0.438924 -0.491517 0.720636 -2.36413 -0.000505926 0.284136 -1.02069 -0.630279 -0.10922 -1.29788 -0.627229 -0.116646 0.302309 -0.151616 -0.106155 0.279156 -0.395583 0.130589 -1.25851 0.498078 0.125474 -1.13143 -0.0185496 -0.93587 -0.156865 0.26537 0.490468 -0.610172 0.325799 -0.407036
States -1.34768 0.0681894 -0.14094 0.0622981 -0.306591 -0.828205 -0.706738 1.45397 1.37612 0.889826 -0.807722 1.18779 -0.174 0.126239 0.458666 0.885197 1.40104 1.60177 -0.648798 -0.632295 0.0447352 -0.682584 -0.0371036 -1.40079 0.239663 -0.462425 0.270737 0.214057 -0.170831 1.12098 0.654941 -0.156621 -1.04125 -1.47559 -0.266041 0.343117 -0.152397 0.0941046 0.385151 -0.155934 0.91244 -1.7786 1.00092 -0.427162 -0.575332 -0.448273 -1.10267 0.695903 -0.232028 0.56652 -0.021399 -0.492272 0.128004 0.485505 -0.286601 -0.654491 -0.0948795 -0.124251 0.446185 0.0312736 -0.408778 -0.470027 0.0155778 -0.411674
school -0.169041 1.25588 1.01783 0.690585 -0.164797 -0.353678 0.115175 0.283684 0.332537 1.08294 0.00390441 0.49074 -0.795922 0.411744 0.145093 -0.74201 0.581929 -0.226867 0.478076 0.978281 -0.276628 0.513144 0.527491 -0.481889 -0.00490097 0.361295 -0.0527666 -0.343404 0.731209 -0.910169 -0.306049 -0.504965 -1.30359 -2.96758 -0.117786 -0.491839 1.4797 -1.92476 0.353964 0.357544 -0.651665 0.165984 1.42466 -0.0982989 -0.287076 -0.478724 -0.288877 0.11267 -0.454819 1.41761 -1.18146 -0.453635 -1.99828 1.14902 -0.0771519 -1.0576 0.235593 -0.504189 0.54717 -0.581103 0.66575 -0.917023 -0.25571 0.166768
law -0.0727439 0.668096 -0.303291 -0.111997 -1.06047 0.12611 0.277852 -0.370575 0.542204 -0.346951 -0.133752 -0.0316288 -0.257432 0.547922 -0.534758 -0.118822 -1.63853 0.573078 -0.255186 0.937467 0.48299 -1.20399 -1.35772 -0.0775752 -0.353116 0.467678 0.300714 -1.62645 0.410489 1.0201 0.0418042 0.270191 -1.27031 -0.834052 -0.618101 -0.390023 1.27333 0.502101 -1.76387 0.176046 0.266234 -0.130533 -1.63187 -1.35299 -0.582042 -0.0396151 1.58881 -0.510954 -0.916991 -1.15726 -0.178535 0.413148 0.312485 0.22464 0.648776 -0.702063 -0.501495 0.0385379 0.699906 0.286844 -0.0923006 0.100275 0.380779 -0.690657
schools 2.16651 1.35955 -4.41631 0.760587 -0.00416971 -1.4067 1.29006 -1.46826 1.09293 3.46761 0.833354 -1.68644 -0.957722 0.669068 -0.247651 0.150362 1.17877 0.38995 2.08133 1.70576 3.03013 -4.67473 0.315056 -0.264531 1.0584 -0.704671 0.520672 -0.873444 1.46236 0.567814 2.62536 -2.76263 0.764456 -3.12039 0.332932 -0.734211 -0.605692 -1.00614 -0.471741 0.79077 1.41209 -2.17829 0.732941 -0.215652 -1.69709 0.465493 0.72434 -3.27512 -0.00196884 -2.94994 -2.43047 -3.40487 -0.400797 0.0664801 0.0293262 -1.32406 1.07347 -3.51108 2.35671 -2.44688 1.4678 -1.66396 -2.25523 0.387461
people -0.845256 0.19227 0.117837 0.440827 0.732351 1.50087 0.16375 0.586739 0.0802252 -0.0659142 1.32015 0.519411 -0.0369543 0.130404 -0.0972988 0.634533 0.773908 0.610902 0.365238 1.21756 2.35256 0.00349534 0.504412 -1.02282 0.338626 -0.333781 2.95395 -0.406859 0.201302 -1.02673 0.355489 0.195988 -0.426004 0.171797 0.324967 -0.707084 2.35966 -0.704099 0.365061 0.187067 0.86719 1.23824 -0.24751 -0.8203 -0.98831 0.266243 -0.101319 -0.22623 -0.119995 0.212329 0.121644 1.17608 0.0623891 0.840438 -0.0609109 0.00401827 -0.106995 -0.49769 0.752526 0.132144 0.0502869 -0.377884 -0.184759 -2.74988
now -0.2069 -0.629625 -2.20022 -0.286492 0.39412 0.551239 -0.715847 0.284351 -0.325105 0.0658922 0.0657223 -0.338982 -0.0918246 1.37619 0.0786493 -0.073241 0.0331786 0.209869 0.196074 0.190223 0.0301305 -0.353152 -0.0913428 0.538646 -1.05753 -0.163523 -0.298423 -0.0145495 0.813609 -0.484891 0.262432 0.0781603 0.263247 0.152006 0.304056 -0.279203 0.604839 0.280191 -1.73124 0.960619 1.10225 1.04031 -0.0552269 -0.123227 -0.580357 -1.06334 -0.63035 -0.198638 0.765654 -0.0871227 -0.401855 -0.126173 -0.765922 -1.08228 0.172519 -1.33775 0.24386 0.284734 0.769306 0.251076 1.91539 0.285439 -0.791457 -0.781998
any 0.231709 0.651258 0.0560097 0.0276981 0.40099 -0.93613 -1.06164 -0.611826 0.667334 -0.787455 0.149463 -0.83277 0.521119 1.1202 -0.276003 0.0836476 -1.22389 0.525262 -0.0730063 -0.392835 -0.0579399 0.208688 -0.0419577 -0.414674 -0.226435 -1.70209 1.7568 -0.669026 1.68983 0.259221 0.425857 -0.213972 0.139627 -1.04456 1.4473 -0.298014 0.533632 0.06324 -0.167814 0.592466 0.678412 -1.15159 -0.171345 -0.888997 -0.822569 1.03044 -1.26051 -0.0162893 0.0903466 -1.37169 -1.15837 -0.820038 0.646987 0.888446 -0.858871 -0.0704885 0.113046 -0.167708 -0.480711 0.16966 -0.050287 -0.105707 -0.331511 -1.13934
these -0.750444 2.8564 1.86993 -2.43934 -0.202356 -1.14797 -0.631437 0.652224 0.102148 1.83148 -0.987566 1.60952 6.04404 2.4545 0.384832 0.510269 2.76158 -0.0760742 3.3115 2.17156 0.67306 -2.96094 -2.27223 -1.20617 -0.169579 0.58377 0.891159 0.461091 -2.02275 -1.06118 1.01978 2.40058 -2.25382 -2.04775 1.3057 -1.36419 2.58007 -1.60258 0.447685 2.38738 2.17924 -0.803478 -1.49965 0.56965 -3.02597 -1.69923 3.55872 -1.15878 1.5705 -0.339387 1.33982 1.13615 -4.13629 1.67797 -1.23393 0.534751 -2.04667 0.129886 -2.22153 -2.14006 -0.395683 1.9523 -1.62187 0.624402
( -0.213345 -0.0332166 -0.137389 0.821152 -0.276174 -0.00983678 1.10074 0.249743 -0.0768773 -0.704099 0.0634279 3.1267 -0.0836297 -0.486019 -0.822955 -1.06955 0.199235 0.360122 -0.199597 0.179821 0.299504 -0.112631 -0.362506 -0.0845193 -0.120724 -0.425145 0.249179 -0.580809 -0.217704 1.26419 -0.0195319 -0.131053 -0.234766 -0.0366179 0.112471 -0.3095 -0.101024 -3.26524 -1.11564 1.88218 -0.614584 0.780083 -0.00319189 0.924694 0.746971 -0.649435 0.730546 0.25502 0.0718427 1.25395 0.416875 0.303555 -0.609618 0.116755 0.283232 0.755944 0.711417 -0.00538753 0.563738 0.10972 1.51076 -0.537045 0.369455 -0.79212
) -1.95203 1.34679 -2.1039 1.82564 1.12061 -0.134016 -0.746193 -0.730777 -0.840988 -1.99463 -1.77057 4.01372 -0.283577 0.117559 0.370975 -0.349743 0.0554638 0.333632 0.795082 -1.30003 1.45363 0.124494 -2.54529 -2.12083 -0.593958 -1.97639 0.91427 -3.00998 2.13939 1.63889 1.24495 -1.51236 0.0659824 -1.45922 2.53586 -0.425884 -0.140211 -3.00719 -3.24774 0.370083 -2.88659 3.28019 -1.69151 1.8649 0.983695 -0.843207 1.52706 0.626216 -2.95192 1.01455 -0.0707327 0.823351 0.29246 -0.222501 1.08477 0.880473 0.612664 1.43433 2.54854 -1.15994 -0.442356 0.0448386 -0.161907 -0.876993
funds 0.320975 0.310325 0.661275 0.511397 1.01019 1.74407 -0.476009 0.246686 0.225788 0.339268 -0.801112 0.18735 1.15594 -0.345133 -1.27458 -0.274103 0.14624 -0.184735 -0.0542404 0.950761 1.30821 0.209665 0.253 0.302012 -0.39431 -0.571104 -0.553398 -2.4262 -0.234449 -1.08456 -0.411059 -1.70683 -0.0512504 -0.0111966 0.538874 -0.27658 0.82245 -0.526243 -0.0673059 -0.171777 0.661357 0.278511 -0.645484 -1.11805 0.350303 0.105904 1.82121 -0.358838 -1.90928 -0.365886 -0.513021 -0.181972 1.01704 0.171937 0.343394 -0.686106 0.442511 0.0197365 -0.223864 -0.970285 0.125271 0.534741 -1.64667 -0.45543
under -0.776129 -0.439953 -0.627165 -1.25549 -1.26161 -0.191987 -0.549051 0.812939 0.165488 0.910381 -0.262692 -0.136415 0.318587 0.0645618 0.871607 2.35141 0.441085 0.570728 0.7343 0.408134 0.490367 0.489242 -0.0963492 -0.0803186 -0.207552 0.524788 0.038719 -0.582304 -0.420648 0.0829676 0.41982 1.58416 -0.102813 0.129572 1.63102 0.162246 -0.179637 0.910943 -0.129142 0.404292 -0.797916 -1.23557 0.429371 -1.45394 -0.72281 -0.549669 0.216148 0.365551 0.16019 -0.390353 -0.518335 -1.10028 -1.00978 0.643867 -0.583407 0.135847 -0.719365 -0.699859 1.25885 -0.17619 0.188686 -0.292292 -0.218227 -1.12386
campaign -1.48284 -1.57983 0.410916 -0.23158 -0.615656 0.402753 0.128162 0.661913 -0.128972 0.643579 -1.43353 0.0890547 -0.188376 0.799807 0.694762 0.72019 -2.98555 0.191671 0.0311198 -0.934498 -0.469619 0.294147 -0.259704 -3.94072 0.13592 0.786891 -1.45126 -0.266895 0.316732 1.39046 -0.529941 -0.45256 0.653786 -0.081352 0.557097 -0.0621534 1.95652 -0.382447 0.611622 -0.0963738 0.066428 1.64162 -0.218856 -1.06003 -0.361544 -0.925104 -0.947684 -0.790257 -1.621 1.08264 -0.472497 0.352356 0.331462 -0.0204545 0.430375 0.0218076 -0.561248 -0.4526 -0.0111972 0.61367 0.0727143 0.563633 -1.72716 0.17036
medical -1.27864 0.611751 -0.806568 0.813911 0.0842245 0.16744 -0.416399 0.0723863 -0.28965 2.80485 0.592095 0.163906 -1.66853 0.772847 -0.97997 -0.334457 1.29917 0.0328474 2.3394 -0.0221881 -0.308188 -0.187117 -0.762338 0.763617 -0.550709 0.138755 0.154965 -0.0738078 -0.0942387 -0.648032 -0.35599 0.635917 -0.935528 -0.52748 -0.00212507 -0.0832882 1.20377 -0.470179 -0.297908 0.225478 0.846621 0.473199 0.241756 -0.334107 0.185571 0.540614 2.64432 -0.855096 -0.63728 -0.671402 -0.103667 0.638993 1.43213 -1.55156 0.550918 0.190477 -0.469212 -0.748893 -1.16431 -0.524808 1.49889 -0.784578 1.13462 1.56911
make 0.551552 0.0351884 0.343383 0.157389 -1.95983 0.0749684 0.199846 0.0251738 -0.831137 0.0246327 -0.310365 0.159165 0.70082 -0.858562 -1.20196 0.0290361 -1.30538 0.132305 0.416046 -0.223601 0.89797 0.15511 -0.43692 -0.000794102 -0.819239 -0.204951 0.185227 -0.360799 -0.0563377 1.12735 -0.50391 -0.590346 -0.6824 0.0821654 0.58399 -0.133524 1.68686 -1.00575 0.358662 -0.388156 0.0622019 0.61476 -0.619868 -1.97823 0.414242 -0.627811 0.0915415 -1.05205 -0.506638 0.640091 -1.08396 0.395774 0.192174 0.0314306 0.823074 0.107745 -0.183134 -0.475953 -0.818033 -0.80521 0.152884 0.723018 -1.47781 0.453235
candidate 0.75174 0.376057 0.359136 -0.0208591 -0.60187 0.800144 -2.45012 0.103018 3.01987 0.909324 0.0946097 -0.229615 -0.0770015 -0.754714 -1.40814 1.43013 0.471308 1.04357 0.144789 0.328497 0.46318 -0.925002 0.215184 -0.781877 0.215782 -1.11268 0.410481 -0.102157 1.2872 -0.204963 0.671416 -0.242735 -0.0292772 -0.741862 0.274435 0.47663 2.10756 -0.130836 0.646414 0.343943 1.09218 1.39432 -0.875876 0.30846 -0.178763 -1.35946 -0.686473 0.463566 0.471657 0.245 -1.19728 -0.138319 -0.232582 1.03491 -0.335444 0.109629 -0.135692 -0.173988 -0.0175107 -2.24894 1.05511 -0.440249 0.031432 -0.731214
did -0.417116 0.386484 -0.215869 -0.115829 0.296959 0.653769 -0.150619 0.8847 0.207637 0.38254 -2.40983 -0.351144 1.18655 -0.668095 0.218835 -0.29282 -1.56819 -0.895184 -0.238223 1.62945 2.64008 -0.0738552 -0.151806 -0.202133 0.0795327 -0.106522 0.267734 0.446198 0.107014 0.121564 0.892573 0.178664 -0.344541 -0.0613595 -0.192402 -1.46481 0.300226 -1.14813 0.148788 -1.25705 -0.303668 -0.866681 -0.15881 -0.18813 0.376787 -1.2827 0.179648 -0.537359 -0.667085 0.93754 -0.100117 -0.168766 -1.09735 0.485179 -1.12213 -0.109655 -1.58303 -0.0318868 0.447599 0.606775 0.54857 -0.566452 -0.731206 0.473617
issue 0.379695 0.0645083 0.00511466 -0.0900016 -0.693828 1.06036 0.24699 -0.262132 -0.00531349 1.54302 -0.168283 -0.00234685 0.0917587 0.567689 -0.122499 -0.0301413 -1.1962 0.958017 1.43864 -0.622016 0.878214 -1.44829 -0.0172405 -0.0120272 -0.970325 -0.252667 -0.0514974 -0.227778 -0.0122112 -0.0769915 -0.666468 -0.777587 -0.277072 -1.19447 0.690201 -0.479939 0.0572648 -0.693457 -0.243004 0.0527794 1.85213 -0.0652894 -0.711747 -0.646556 -0.692384 -1.17744 0.241416 -0.955855 -0.864075 -0.307514 0.000944857 -1.55616 -0.0417198 1.09244 1.66926 -0.389539 -0.102792 -0.10537 1.23949 -0.244127 0.00851121 -0.371504 -0.23055 -0.0118003
Laos 0.00543735 0.598324 0.589918 -0.535189 -0.523697 1.08509 -0.80732 0.694859 0.0802948 -0.0764796 -0.52389 0.623404 -0.341783 0.260096 0.755056 1.19825 -1.09529 0.451442 0.0285734 0.498697 -0.578679 -0.547924 0.116306 -1.44532 -0.499078 -0.00444451 0.614892 -0.654872 -0.156517 1.18297 0.361692 -0.339502 -0.470849 -0.0882654 0.903277 -0.393447 -0.543154 -0.814738 0.533032 0.463303 1.06311 -0.541146 -0.610183 -1.20319 0.0233078 -0.985963 -0.439566 0.274741 0.0357668 0.684671 0.427521 -0.274325 0.418559 0.972688 0.291964 0.696451 0.470525 -0.907503 -0.00773329 0.275259 2.31363 0.230799 0.589755 0.720822
Committee 0.133378 0.00590827 -0.300455 0.676808 0.387006 0.574793 0.00356236 0.0167416 0.434913 0.643669 -0.129465 1.52498 -0.229709 -0.220169 0.179492 0.00658065 -0.722482 0.870202 0.516864 0.971874 0.487366 -0.267281 -0.145166 -2.16065 -0.169638 0.098162 -0.192645 0.259997 0.319145 0.869498 0.0337591 -0.615822 -0.600316 -2.20252 1.72745 -1.74014 -0.453016 -0.483296 -0.503232 0.876648 1.35203 0.260667 -0.0816224 -0.292352 -0.0300215 -0.323014 0.0536245 0.079201 -0.00355393 -0.0292254 -1.34761 -0.00184246 -0.435864 0.162235 0.0490231 -0.301446 -0.440691 -0.0577323 -0.279932 -0.158526 0.0650456 -0.0642024 -0.437621 0.591807
about 0.656217 0.625044 -0.611477 -1.23215 -2.55115 -0.287437 -0.1423 -0.0933194 0.597149 0.0344603 0.397583 -1.06626 0.0044102 0.19533 -0.362302 -0.617306 0.0914184 0.13565 -0.680001 -0.295947 -0.103548 -0.117767 -0.124739 -0.990089 -0.169825 -0.0246331 0.11815 -0.498487 0.804579 -1.05006 0.16678 -0.113106 -0.92212 -0.509018 -0.0486727 -0.826332 0.125878 0.543983 -0.477738 -0.24915 0.615841 0.357616 -0.759815 -0.950431 -0.878442 -0.182766 0.474821 -0.0765794 -0.643879 -0.0382212 0.0127147 0.127016 0.649979 0.185043 -0.093477 -1.10475 -0.342626 -0.829121 1.2836 -0.850085 -0.212775 -1.46791 -0.790141 0.183803
Washington 0.953832 -1.76692 1.10081 -2.0141 -0.961706 -0.00205065 0.693411 2.66125 2.34364 2.47386 -3.01857 4.43364 -1.04799 -1.12147 -0.726921 2.58943 3.21967 2.01077 -0.00950339 0.61597 -1.14656 2.39101 0.669366 -0.596713 -1.88922 -0.382071 1.20042 -0.213988 2.54361 0.440076 2.98572 -1.87482 2.29537 -0.0209771 0.490659 0.0733253 1.47085 0.316357 -1.71349 -0.918993 -1.82427 2.09755 1.91498 2.19719 -0.688409 -0.634812 0.570365 -1.93605 -1.00987 1.66297 -2.39252 -0.308728 -0.606982 2.6592 -2.62807 -1.80115 -1.96163 0.723443 -1.53998 -0.594392 1.63771 -1.57388 -0.08162 0.00615547
against -2.45135 -1.03741 -1.16782 -1.65179 0.715829 0.392357 -0.447349 0.0823963 0.0671225 1.2824 -0.247426 3.85518 -0.925603 2.10777 0.129228 1.49151 0.35105 -0.892408 -0.00863577 0.595414 4.61892 0.528477 -0.812491 -2.37757 1.85245 -3.80045 -0.535858 0.732829 0.880073 0.250624 5.80279 -1.2592 0.23276 -4.36621 -0.715787 0.185815 -0.625811 -0.871182 -0.915829 1.63043 1.23004 0.445219 -2.76467 2.53301 -2.48046 0.288558 0.404163 -0.51234 -0.787886 -1.50403 -0.990784 0.729858 -1.50258 -2.08721 0.0241455 -2.81034 -2.34186 -1.01467 2.0914 -0.607679 -0.937032 0.592548 -1.24571 -0.878311
county 1.80901 3.0066 -0.48642 -2.17801 1.52236 -1.99552 -2.74145 1.40155 -1.08087 0.319736 0.430552 1.62651 -1.15159 -0.7547 -0.143636 2.83724 -0.814045 -0.356695 -1.58224 -2.35022 -1.18816 0.682064 -2.36319 1.57181 0.262533 1.80311 -0.535053 -0.399346 3.29523 1.46165 3.61665 -5.38094 -3.36888 -0.428943 0.290447 -1.60708 -1.61178 -2.17122 -0.830798 -0.462929 -0.058905 0.057869 -0.540681 -2.04173 -1.63133 -2.89298 -0.604001 1.67218 2.05096 2.24459 0.162292 -1.79039 -2.09263 3.5345 0.336062 0.533233 2.58954 -2.4764 1.93725 2.02075 0.929066 -2.12754 1.5806 -1.79057
council 0.332064 -0.874946 -0.508989 0.326648 -0.391127 -0.534635 -1.73543 0.172532 0.408984 0.000101809 -0.272835 0.243543 -0.423727 0.745212 -1.58849 -0.929528 -2.2386 0.625239 0.225534 -0.444142 -0.811878 -1.59329 -0.670701 0.184511 0.165761 0.770294 -0.539304 -0.270032 -0.266155 -0.648032 -0.249198 0.120953 -0.915583 -2.33747 -0.0189926 -1.00205 0.481385 0.425104 -0.896173 0.612766 0.812393 -0.709697 -0.157162 -0.802145 -0.0702489 0.276657 1.98853 0.47236 1.27439 0.714307 -1.39512 -1.03803 -0.854002 0.905588 1.5306 -0.961261 -0.214458 0.185864 1.63217 -0.357301 -0.0604006 -0.811785 -0.150484 1.11864
may -1.0328 -0.517475 -0.170744 0.437342 -0.690561 0.196668 -0.23086 0.0203031 0.450132 0.0236654 -0.0372702 -0.462571 0.110538 0.278711 -0.453726 0.0811903 0.350245 0.995678 -0.62278 1.38778 -0.899546 -1.85639 -0.512388 -0.176053 0.623764 -0.634646 -0.311395 -1.32447 0.143439 -0.76973 0.79437 -0.38632 0.118573 -1.44334 0.115886 -0.688135 1.11643 -0.0104422 -0.0559239 0.941062 -0.0163013 -0.256625 0.752976 0.172233 -0.180794 -0.536196 1.2593 -0.283363 -0.760866 -1.51972 -0.200665 -0.206522 0.179158 -0.18935 1.02252 -0.0468725 -0.0147399 -0.0381121 -0.250929 -0.351291 -0.349096 -0.183216 -2.33999 0.458998
being -0.474309 1.42852 -0.449913 -0.610174 -0.651701 1.22357 0.816443 -0.366388 1.14779 -0.00297593 -0.107142 -0.00712899 -2.3718 1.47749 -0.0951226 0.362386 -0.794698 -0.212556 -0.288543 -0.238924 0.0332087 -0.778408 -0.497158 -2.00242 -0.56257 -0.175735 0.987599 -0.374215 -0.0476212 -1.25215 -0.47759 0.257553 0.201518 -0.56859 -0.0187468 -0.337193 0.0280705 0.0596511 -0.000964412 0.604799 -0.74401 -0.85148 -0.209657 -1.28642 -0.461466 -0.0641122 -1.15182 0.40884 -0.186451 0.421211 0.217662 -0.0110975 -0.173636 0.0923838 0.479411 -0.0569767 -0.662315 -0.707523 0.334599 -0.0799662 0.788276 -0.503705 -1.02051 -0.0166862
sales 0.577644 -0.100254 -0.875069 -0.4893 -0.933478 0.846543 -0.133922 -0.557987 -0.17906 0.258036 0.194489 0.0567221 -0.21348 0.409028 -0.912544 0.515292 -1.2398 1.17822 0.384775 0.603725 -0.28148 -3.09749 0.133532 0.730852 -0.183347 -0.744775 -0.350393 -0.886012 1.73319 0.877736 0.367182 0.263283 0.0133103 0.139047 0.353196 -0.68217 0.327928 0.0214995 -0.644506 -0.303923 2.42619 -0.928772 -0.438779 0.418178 -0.567639 -0.985676 -0.317552 -0.283225 -0.0784335 1.3508 -0.44331 -1.7752 0.45779 -0.666721 0.433399 -1.02252 -0.99879 0.270185 0.00755198 -1.23647 -0.345777 0.0930048 -0.46195 0.381441
resolution 0.160094 0.0324959 -0.2359 0.662645 -0.830072 0.862333 -0.683388 0.00320463 -0.134203 0.705384 -0.279247 0.563053 0.82039 0.605541 0.000168999 -0.42931 -0.130791 -0.108675 1.02775 -0.85619 0.863943 0.0395837 -0.322456 -0.493705 0.178079 -0.899674 0.177726 -0.487989 1.24825 1.41176 0.342387 0.0125819 0.0345868 -0.0100189 0.733991 -0.786511 -1.30424 -1.14997 -1.23339 -0.00731831 -0.197649 0.344171 -1.36105 0.516767 -0.320483 -0.265356 0.450874 -0.189111 -0.0575655 0.468772 0.366395 -1.7928 -1.27738 -0.146305 0.602134 0.0511847 0.00757727 0.139944 0.397425 -0.101089 -0.293464 0.0492942 -0.668801 0.843095
what -1.50457 1.07987 -0.46246 -0.813102 0.415757 0.685464 0.386896 -0.012255 0.0407104 -0.517578 -2.50885 0.299974 -0.00129888 0.337719 0.206385 0.660814 -0.116007 0.833343 0.0415042 0.0235167 0.33563 -2.22714 -0.615513 -0.473547 -0.526674 -1.52335 0.0181865 -0.0500138 -0.793181 -0.775744 -1.52987 -0.421509 -0.0452782 0.496357 0.127215 -0.212855 -0.0258335 -0.48718 0.583031 -0.174912 0.282544 -0.128429 0.136538 -1.48416 -0.677466 -0.741303 -0.270512 -1.23941 -1.79623 0.247171 0.125312 -0.622909 -0.0469933 0.13106 -0.498995 -0.812627 -2.01877 0.225467 0.255854 -0.517309 -0.337775 1.15783 0.614464 0.00823365
states -1.06813 3.51074 -2.98705 2.32469 2.95735 2.85228 -2.62987 0.856999 3.0463 -0.0751993 0.804577 2.09347 -0.149562 0.98581 0.906267 3.36151 -1.3846 -0.382854 1.41101 0.655483 1.24233 -1.07855 -3.69519 2.41018 -1.0657 -0.028149 0.987678 -1.1109 2.3191 1.03857 -1.8899 0.717146 -2.69846 -5.32453 -0.88324 -2.14711 0.645981 -0.97691 -3.86632 -0.201016 0.0912849 1.29784 1.20532 0.366717 -2.19983 -2.96619 1.02984 1.42819 1.47069 -1.84552 0.978551 -2.95184 2.96828 1.30521 -0.266267 0.289015 -0.348814 -2.70815 -0.128544 -1.402 3.70942 -2.53662 -1.25028 -1.08377
since 0.880717 1.37147 -0.940303 -0.0410514 -2.52269 -1.46906 0.336148 -0.0311683 -0.13735 -1.99658 -1.63791 -1.65912 -0.850225 -1.15586 -0.791357 3.59866 2.04507 1.93322 -2.22341 1.65019 1.77098 -1.37688 -0.799123 0.346498 -2.13601 -0.353583 1.2039 0.290787 -0.473905 0.410535 2.07119 -2.80395 -2.9508 -0.682938 0.682861 -3.2902 0.186357 -3.03137 0.772159 4.13975 -1.02605 1.43776 1.33087 0.342144 -1.32044 -2.62613 -1.9655 -4.05593 1.23269 -2.17053 -2.93835 -1.50065 1.14194 0.678925 0.789933 1.26612 1.56259 -0.962722 0.554458 -0.455166 3.02865 -1.39957 1.23231 -0.235448
J. 0.293761 0.991806 0.271621 -0.233874 -1.27537 0.256187 -0.171117 0.181768 0.243713 1.90848 -0.524284 1.25452 -0.0788089 0.168041 0.252095 -0.25876 0.682039 -1.12582 0.245421 1.52264 -0.0943683 0.0475545 0.0423449 -0.73084 -0.192322 0.137165 -0.295958 -0.46911 -0.0126749 0.284821 1.19694 -0.557605 -0.160313 -0.633067 1.10174 0.586405 0.478891 -2.57587 -0.281217 -0.282487 -0.638101 0.547336 -1.89643 0.656349 0.0435481 -0.429043 -1.55645 0.124135 -0.713108 1.47361 -0.818022 -0.227953 0.317065 0.281196 0.89965 0.00203684 -1.44471 -0.423984 0.762187 -0.177608 0.684602 0.193578 0.187472 -0.0533953
Fulton 0.187111 0.6624 -0.200597 0.0136962 -0.575369 0.570233 -2.1091 0.100764 -0.0111116 1.0872 0.213288 -0.0607293 -0.69466 0.848844 0.0194625 -0.720436 0.30629 0.852117 -0.310098 0.0930805 1.70413 1.48762 -0.67744 -0.947245 -1.02815 -0.983984 -0.625704 -1.13127 0.654006 -0.593132 1.58805 -0.208221 -0.191489 -0.929115 0.316083 0.103298 1.28161 0.214255 -0.616495 1.2378 0.0724049 0.96144 -0.162968 -0.00479503 -0.422481 0.674128 -1.24009 -0.914349 -0.237344 0.283764 0.427594 -0.0289559 0.100728 0.298923 -0.359159 0.236826 -0.0365021 -0.903063 -0.161735 0.875475 -0.409803 0.730169 1.28368 -0.380947
per 0.0650511 -1.01192 0.932558 1.17791 -1.01585 -0.0685785 -0.00584063 -1.26635 -0.273628 0.639999 2.79587 0.561366 -3.24719 0.452651 1.40398 1.44458 -0.108937 -0.107467 0.233078 -1.19259 1.05351 -2.94758 0.690503 0.5509 -2.9648 -2.12475 0.840806 0.171542 -0.604571 1.48983 0.341286 -1.48504 -3.51005 -2.84927 2.12602 -3.94251 2.82339 0.207546 0.186526 -1.09563 -0.641621 0.500234 -1.69839 -0.938716 1.11943 1.19363 2.98631 1.95232 -0.599801 -0.619806 -3.34502 0.381374 -0.679835 -1.75262 2.22391 0.612131 -0.596214 -2.62697 0.742097 0.228791 -1.24688 -3.48931 -1.99103 -1.03478
when -1.41427 2.35431 -1.24324 2.55208 0.350949 -0.757012 0.387338 0.524658 0.116496 -1.40575 -4.95209 2.22812 -0.716867 -0.00787754 -2.8483 0.230805 1.16233 -1.22135 2.15722 -0.854545 1.20762 2.64696 -1.2241 -0.707393 1.52663 -5.48547 -0.502379 -0.00179611 0.602573 1.33258 1.96524 -2.45763 1.31959 -0.169807 -0.610441 -3.25678 2.60655 -1.78559 -0.288572 1.72847 3.12968 2.05219 -3.1613 -1.33202 -0.861314 -0.404853 2.52386 -0.699293 -2.10192 -1.30704 2.00757 1.76736 0.209256 0.671366 -0.644918 1.02924 -2.27645 -0.27843 2.98813 -2.19663 2.03093 1.60791 -2.51351 -1.37441
' -0.322022 -0.299918 0.0721331 0.766416 -1.10978 0.395923 -0.551551 0.00889162 0.410009 -0.654961 1.02292 -0.00813692 0.939829 0.173203 -0.900206 0.946134 -1.0589 -0.892614 -0.393298 -0.144418 1.65552 -0.814221 0.00703382 0.356158 -0.119309 -0.0467921 -0.552301 0.397573 0.955761 -0.0994458 0.496408 -0.795378 -0.720896 -0.41393 0.414611 0.439032 0.586016 -0.324041 0.463073 0.0887717 -0.194326 -0.535976 -0.0990322 0.727195 0.774877 -0.497097 0.285282 1.02281 -1.37374 -0.460094 -0.217574 0.279923 0.0423194 0.697293 -0.935808 0.437501 -0.223083 -0.121127 0.413435 0.380967 -0.410604 -0.000952355 -1.45392 -0.0526524
Sen. -0.456253 0.0956103 0.547947 0.756964 -1.13316 0.0653788 -2.00426 0.792299 0.0567952 -0.952347 1.82175 1.14646 -0.6251 0.656611 -0.0965561 0.0085603 -0.8212 -0.428322 0.413381 0.227883 1.53359 -0.688536 0.282048 0.520847 0.880889 -0.207949 0.741682 0.565307 -0.0808425 2.32061 1.38062 -0.809496 -0.498372 0.311333 -0.174691 0.841054 0.373806 -0.937105 -1.18316 0.168654 -0.337493 0.784957 0.673802 0.322475 0.117492 0.258412 -1.6222 -1.0528 -0.689139 0.631361 -0.0180531 0.733589 -0.00965589 -0.721025 2.81859 -0.683933 -0.774932 -0.73945 0.490111 -2.57472 0.305347 -0.201446 -0.692264 -0.704255
Senate 0.656064 1.53669 -0.62322 -0.800308 -1.76536 1.13392 2.39067 0.762269 0.370288 0.401436 -2.06531 0.48522 2.0515 0.696729 -2.29802 0.957121 -0.368122 2.93274 -0.0640936 2.32642 -2.23816 -1.43308 -0.14087 -0.35199 0.34246 1.46309 -0.793985 -1.75007 4.23883 1.74971 -0.525388 0.944157 0.295044 -0.224668 -0.353422 -0.698749 -3.64427 -2.57383 -5.24938 2.48342 2.11691 -0.819056 -2.76073 -1.55904 0.670075 -2.49156 -1.73451 0.61441 0.313919 1.08181 -1.24279 -0.922286 -1.40401 0.0825853 -2.06551 -1.97416 0.0546523 0.507877 5.07841 -0.28927 -0.180983 -1.20979 1.04625 0.572857
must -2.74443 0.723087 -0.552373 0.376958 2.33221 0.925637 2.8723 -3.16949 3.81731 0.635387 -4.48507 0.0475955 1.60876 0.351483 -1.66305 -0.676969 -2.39337 1.67884 -1.30245 0.939939 0.366513 -1.25032 1.51815 2.26966 0.753825 -0.14848 -2.96803 0.469864 3.1141 -0.150554 -3.59782 -3.54308 -1.31441 0.147389 -0.709095 0.00528708 3.70978 -0.779468 1.35821 0.927543 0.752212 0.498401 1.56485 -1.04955 -0.451559 -2.01429 -0.977217 -1.03989 -0.312758 -0.826326 -1.66299 -2.06956 -5.74781 4.87368 -0.811397 0.184863 -0.689294 -1.4145 0.429731 -0.795513 0.930194 1.05994 -3.27439 0.907757
each 0.672348 -0.0175783 -1.28552 1.43926 0.286559 1.05257 0.254824 -0.772439 0.277037 0.0430677 0.832231 -0.466444 -0.0611396 0.645428 -0.0240622 -0.0137427 0.449318 -0.159915 1.59651 0.300501 0.023866 -0.103537 0.206154 0.740311 -0.157582 0.871207 0.409405 -0.770854 -0.319236 0.0240255 -0.260657 -1.80677 2.33568 -1.66439 2.46992 -0.00638863 -0.158697 0.490972 -0.974259 1.45196 -0.119582 0.462813 -1.10659 -1.27568 0.720468 0.109454 1.18297 -0.756026 0.00722732 -0.2372 -3.34958 -0.432712 -0.0553711 -0.717117 0.959852 1.22053 -0.623301 -2.77145 -0.493506 -0.517149 -1.04035 0.293837 0.384657 -0.208698
primary 0.381406 0.539438 0.425925 -1.31449 -1.0213 1.05429 -1.46872 0.135979 0.58465 0.260979 0.267906 0.380227 -1.17674 1.11004 -0.424583 -0.0717317 -0.556312 0.0299893 -0.853114 -0.231215 0.127144 -0.0322596 -0.398554 0.487736 -1.31132 0.030723 0.161607 0.0374517 0.481419 -0.193835 0.334522 -0.130249 -0.468924 -0.0544926 0.00138775 -0.404254 0.683032 0.00303659 -0.236162 1.63072 0.516255 0.145089 -0.769512 -0.2154 -0.923535 -0.441925 -1.40246 0.384144 -0.410683 1.10018 0.0522762 -0.389874 -0.0759579 0.548126 0.0222929 0.0568744 -0.831471 -1.0562 -0.13517 0.131703 0.68904 0.270781 -0.178227 -0.304916
Jones -1.70606 0.0521522 1.1568 2.06004 -0.226451 0.897286 -1.11764 0.223924 -0.804531 1.38707 -3.51913 0.822506 0.414655 1.34274 -0.321846 0.21838 -1.59072 0.393631 -1.61073 -0.871974 1.4755 1.9339 0.206326 -4.01159 -0.0830889 -2.63273 1.05309 -1.07786 1.12606 1.02968 0.722442 1.02465 0.576091 -2.54266 -0.768044 -0.126038 1.28034 0.11607 0.284081 1.49756 0.577375 3.0601 -1.86316 -0.109746 -1.7922 -0.883051 -4.07463 1.97802 1.27079 2.67442 -0.239006 -1.26344 0.166827 1.50071 2.36173 -0.590826 -2.61632 0.481165 -1.42623 1.76548 0.430095 0.642929 1.83919 -2.42822
Republicans -1.84179 -0.113546 1.27895 0.438041 2.00357 1.4594 -1.75825 0.668067 -0.454178 1.13836 0.784328 5.10884 -1.78682 -0.0881753 -0.18694 0.391689 -1.90251 1.36131 -0.129745 0.310345 1.01841 -4.444 -1.47982 0.334701 2.3286 0.0924211 2.9981 -1.61653 0.429127 3.90629 1.17226 -3.40185 1.88785 -1.16614 -1.87532 -0.871922 1.31015 -1.03526 -0.266693 0.193479 -0.0682318 0.974938 0.720269 0.322686 -1.22823 0.159142 1.7279 -5.40321 -0.496558 3.45183 2.65601 -1.58498 2.4025 -1.039 1.95528 -0.669277 -0.594198 -0.533028 1.75413 2.245 4.28799 -1.76489 -0.0422923 -0.427452
Dallas -0.782537 -0.292058 0.423059 1.57057 -0.702034 0.53489 0.633493 0.228452 -0.0885747 0.612656 -1.71167 0.650319 -2.14033 0.388039 0.18857 -0.0992976 0.637663 0.314586 -0.0840162 2.95368 0.418589 -1.66859 0.0278342 -0.341415 -0.199948 -0.922618 0.422648 -0.00225081 0.662871 -0.757922 -0.685962 -0.274633 -1.14754 -0.33083 -0.00594957 -0.342836 -0.335008 -0.344163 -0.156741 0.25107 0.0416649 0.614422 0.145285 -1.03316 -0.992897 -0.31326 -0.390965 0.112226 -0.288766 -0.338049 -0.598095 -0.24228 -1.00613 0.737699 1.93403 -0.387256 -0.41262 -0.513549 0.0658172 0.206479 0.0178869 0.267433 -1.73362 -1.33729
increase 0.400485 -0.0500722 0.0994839 -0.476761 -0.629709 0.365944 -0.552165 -0.546135 0.7784 1.21457 -0.359695 -0.388394 0.805623 0.619007 0.0015292 -0.0703001 -0.948943 0.37184 -0.523846 0.517974 0.523965 -0.751047 -0.48344 -0.418778 -0.358411 0.605977 -0.0079711 0.0496694 -0.356696 -0.453565 0.272756 -1.50876 0.0683645 -0.260236 0.114626 1.07987 0.122381 0.584961 -0.196626 0.859922 -0.0538455 0.249963 -0.550151 -1.19781 -0.194693 -1.16109 -0.0656038 -0.0332182 -1.01589 -0.933165 -0.348613 -0.611573 0.280666 -0.729779 1.20535 -0.510423 0.0116041 0.194088 0.29181 0.252914 1.48284 0.184364 -0.863379 -0.428822
care -0.593139 -0.555087 -0.745338 3.11751 0.137542 -0.907661 -0.995706 0.417773 1.14489 3.06777 -0.316891 -1.12853 1.43736 -0.491616 -0.668286 -0.549376 2.10817 -0.784023 1.98841 0.585255 0.972761 -3.08679 -2.57709 0.709323 -1.54778 0.279721 -2.7683 -1.8248 1.70939 0.237079 1.42861 0.612718 0.107127 -2.53853 0.780374 0.156307 1.96267 1.18571 -0.322064 0.965547 -0.863755 -0.860247 -1.52824 -2.73641 -4.90191 0.494437 1.21326 1.30177 -2.87852 -3.10587 -2.00117 0.271589 1.14576 0.771484 -0.626648 -1.01826 1.50239 0.310119 0.224495 -1.42006 0.157437 -4.24971 -2.01881 1.85746
only -0.120948 0.299404 -0.345384 -0.610586 -0.481394 -0.431798 -0.0780297 0.549254 0.0414889 0.444613 -0.0129853 -0.753858 0.127276 -0.41905 -1.13568 0.414915 -0.465219 0.7949 0.082646 -0.11747 -0.677846 0.439192 0.0748789 -3.21084 -1.64674 -0.422164 0.830927 -0.0752916 1.12253 -0.123869 0.03913 -0.0858288 -1.04492 -0.214426 -0.0459237 -1.05648 0.0899312 -0.6632 0.603119 0.77192 0.686575 -0.0883136 0.100453 -0.108508 -1.04369 -0.579472 -0.374385 -0.456642 -0.803483 -0.642102 -0.712895 0.0410269 -1.96585 -0.732386 0.393675 0.0596971 0.0371497 0.116107 -0.260417 -0.370403 1.01786 -0.829917 0.106463 -1.82666
director -0.222455 0.755771 -0.377771 -1.03372 -0.539052 -0.391085 -1.52307 -0.0313445 1.56811 0.00448454 -0.0177626 -0.254512 0.801177 1.59764 -0.249085 -0.691748 0.331697 -0.0214234 -0.0110669 -0.0575614 0.0363396 0.268942 -0.918857 -1.64217 -0.155008 -1.44028 -1.37684 -0.194286 0.629618 0.242118 -0.0284131 -0.292913 0.332761 -0.720541 1.05429 -0.64858 0.79479 0.847157 -1.79256 0.925424 0.0146646 -0.622138 -1.11901 -0.0348206 -0.282312 -0.39558 0.0896698 0.282677 -0.139817 -0.0086398 0.279452 -0.0637778 -0.966321 -0.325124 0.475573 -0.0738593 -0.0138402 -0.859245 0.092582 -1.20672 -0.472073 0.2015 -0.111039 0.894925
